{"learner":{"attributes":{"best_iteration":"353","best_score":"0.9974006673089123","scikit_learn":"{\"_estimator_type\": \"classifier\"}"},"feature_names":["gender","age","has_hypertension","has_heart_disease","marital_status","employment_type","residence","glucose_level","bmi_value","smoking_habit"],"feature_types":["int","float","float","float","float","int","int","float","float","int"],"gradient_booster":{"model":{"cats":{"enc":[],"feature_segments":[],"sorted_idx":[]},"gbtree_model_param":{"num_parallel_tree":"1","num_trees":"384"},"iteration_indptr":[0,1,2,3,4,5,6,7,8,9,10,11,12,13,14,15,16,17,18,19,20,21,22,23,24,25,26,27,28,29,30,31,32,33,34,35,36,37,38,39,40,41,42,43,44,45,46,47,48,49,50,51,52,53,54,55,56,57,58,59,60,61,62,63,64,65,66,67,68,69,70,71,72,73,74,75,76,77,78,79,80,81,82,83,84,85,86,87,88,89,90,91,92,93,94,95,96,97,98,99,100,101,102,103,104,105,106,107,108,109,110,111,112,113,114,115,116,117,118,119,120,121,122,123,124,125,126,127,128,129,130,131,132,133,134,135,136,137,138,139,140,141,142,143,144,145,146,147,148,149,150,151,152,153,154,155,156,157,158,159,160,161,162,163,164,165,166,167,168,169,170,171,172,173,174,175,176,177,178,179,180,181,182,183,184,185,186,187,188,189,190,191,192,193,194,195,196,197,198,199,200,201,202,203,204,205,206,207,208,209,210,211,212,213,214,215,216,217,218,219,220,221,222,223,224,225,226,227,228,229,230,231,232,233,234,235,236,237,238,239,240,241,242,243,244,245,246,247,248,249,250,251,252,253,254,255,256,257,258,259,260,261,262,263,264,265,266,267,268,269,270,271,272,273,274,275,276,277,278,279,280,281,282,283,284,285,286,287,288,289,290,291,292,293,294,295,296,297,298,299,300,301,302,303,304,305,306,307,308,309,310,311,312,313,314,315,316,317,318,319,320,321,322,323,324,325,326,327,328,329,330,331,332,333,334,335,336,337,338,339,340,341,342,343,344,345,346,347,348,349,350,351,352,353,354,355,356,357,358,359,360,361,362,363,364,365,366,367,368,369,370,371,372,373,374,375,376,377,378,379,380,381,382,383,384],"tree_info":[0,0,0,0,0,0,0,0,0,0,0,0,0,0,0,0,0,0,0,0,0,0,0,0,0,0,0,0,0,0,0,0,0,0,0,0,0,0,0,0,0,0,0,0,0,0,0,0,0,0,0,0,0,0,0,0,0,0,0,0,0,0,0,0,0,0,0,0,0,0,0,0,0,0,0,0,0,0,0,0,0,0,0,0,0,0,0,0,0,0,0,0,0,0,0,0,0,0,0,0,0,0,0,0,0,0,0,0,0,0,0,0,0,0,0,0,0,0,0,0,0,0,0,0,0,0,0,0,0,0,0,0,0,0,0,0,0,0,0,0,0,0,0,0,0,0,0,0,0,0,0,0,0,0,0,0,0,0,0,0,0,0,0,0,0,0,0,0,0,0,0,0,0,0,0,0,0,0,0,0,0,0,0,0,0,0,0,0,0,0,0,0,0,0,0,0,0,0,0,0,0,0,0,0,0,0,0,0,0,0,0,0,0,0,0,0,0,0,0,0,0,0,0,0,0,0,0,0,0,0,0,0,0,0,0,0,0,0,0,0,0,0,0,0,0,0,0,0,0,0,0,0,0,0,0,0,0,0,0,0,0,0,0,0,0,0,0,0,0,0,0,0,0,0,0,0,0,0,0,0,0,0,0,0,0,0,0,0,0,0,0,0,0,0,0,0,0,0,0,0,0,0,0,0,0,0,0,0,0,0,0,0,0,0,0,0,0,0,0,0,0,0,0,0,0,0,0,0,0,0,0,0,0,0,0,0,0,0,0,0,0,0,0,0,0,0,0,0,0,0,0,0,0,0,0,0,0,0,0,0,0,0,0,0,0,0,0,0,0,0,0,0,0,0,0,0,0,0,0,0,0,0,0,0],"trees":[{"base_weights":[-4.4798786E-3,-1.5633606E0,7.4637437E-1,-1.86655E0,-9.5069444E-1,2.1008089E-1,1.1854732E0,-8.7647057E-1,-1.9217069E0,-6.8869567E-1,-1.3174468E0,-7.3691756E-1,4.0810812E-1,9.1940296E-1,1.3417349E0,-9.125E-2,5.75E-2,-9.947891E-2,-1.6942029E0,-1.265E0,6.0183483E-1,-9.671875E-2,-5.5495495E-1,-1.2894736E-1,-1.416794E0,7.448664E-1,2.176E-2,4.3969464E-1,1.0157377E0,1.3834639E0,6.4415586E-1,-3.12E-1,-9.817391E-2,-9.309091E-1,-9.468355E-2,-1.0980392E-1,1.1548387E0,-7.747368E-1,2.9E-2,1.1641791E-1,-8.0909096E-2,-4.1025642E-2,-9.5625006E-2,2E-1,1.0450766E0,6.485597E-1,-3.7202072E-1,6.878505E-1,-2.7857143E-2,7.1260504E-2,9.082828E-1,1.2722292E0,1.6217142E0,-2.6363635E-2,1.0440677E0,4.8750002E-2,-4.157895E-2,-6.418605E-2,1.45E-2,5.9333332E-2,-8.32E-2,4.210526E-3,7.404255E-2,3.6250003E-2,-5.156627E-2,-7.3750004E-2,1.6229508E-2,-2.5185186E-2,3.6250003E-2,8.6E-2,-0E0,7.827958E-2,4.505435E-2,-2.7142856E-3,7.738318E-2,-3.2236842E-3,-7.186046E-2,1.8157896E-2,6.514286E-2,3.124378E-2,5.42953E-2,6.471043E-2,2.5999999E-2,8.492857E-2,6.189189E-2,2.918919E-2,7.6153845E-2],"categories":[],"categories_nodes":[],"categories_segments":[],"categories_sizes":[],"default_left":[0,0,0,0,0,0,0,0,0,0,0,0,0,0,0,0,0,0,0,0,0,0,0,0,0,0,0,0,0,0,0,0,0,0,0,0,0,0,0,0,0,0,0,0,0,0,0,0,0,0,0,0,0,0,0,0,0,0,0,0,0,0,0,0,0,0,0,0,0,0,0,0,0,0,0,0,0,0,0,0,0,0,0,0,0,0,0],"id":0,"left_children":[1,3,5,7,9,11,13,15,17,19,21,23,25,27,29,-1,-1,-1,31,33,35,-1,37,39,41,43,45,47,49,51,53,55,-1,57,-1,59,61,63,-1,65,-1,67,-1,69,71,73,75,77,-1,-1,79,81,83,-1,85,-1,-1,-1,-1,-1,-1,-1,-1,-1,-1,-1,-1,-1,-1,-1,-1,-1,-1,-1,-1,-1,-1,-1,-1,-1,-1,-1,-1,-1,-1,-1,-1],"loss_changes":[1.5427866E3,7.753931E1,2.0907605E2,1.3626892E1,1.2728836E1,7.5608635E1,1.886084E1,3.484309E1,4.222412E-1,6.4975075E1,2.6313736E1,2.8493515E1,4.3232395E1,7.922516E0,7.799011E0,0E0,0E0,0E0,2.4841171E1,1.0556694E1,1.0955247E1,0E0,7.390851E0,1.4224007E1,2.2060928E1,2.8741844E1,3.8834816E1,8.497703E0,5.182129E0,5.26001E0,9.620203E0,9.155174E0,0E0,1.8240135E1,0E0,2.7713211E1,5.1288795E0,9.917702E0,0E0,1.1461913E1,0E0,3.7986822E0,0E0,1.9608E1,6.905487E0,3.862316E1,3.1370144E1,4.701914E0,0E0,0E0,5.3799057E0,2.4646912E0,1.8537903E-1,0E0,2.1522503E0,0E0,0E0,0E0,0E0,0E0,0E0,0E0,0E0,0E0,0E0,0E0,0E0,0E0,0E0,0E0,0E0,0E0,0E0,0E0,0E0,0E0,0E0,0E0,0E0,0E0,0E0,0E0,0E0,0E0,0E0,0E0,0E0],"parents":[2147483647,0,0,1,1,2,2,3,3,4,4,5,5,6,6,7,7,8,8,9,9,10,10,11,11,12,12,13,13,14,14,18,18,19,19,20,20,22,22,23,23,24,24,25,25,26,26,27,27,28,28,29,29,30,30,31,31,33,33,35,35,36,36,37,37,39,39,41,41,43,43,44,44,45,45,46,46,47,47,50,50,51,51,52,52,54,54],"right_children":[2,4,6,8,10,12,14,16,18,20,22,24,26,28,30,-1,-1,-1,32,34,36,-1,38,40,42,44,46,48,50,52,54,56,-1,58,-1,60,62,64,-1,66,-1,68,-1,70,72,74,76,78,-1,-1,80,82,84,-1,86,-1,-1,-1,-1,-1,-1,-1,-1,-1,-1,-1,-1,-1,-1,-1,-1,-1,-1,-1,-1,-1,-1,-1,-1,-1,-1,-1,-1,-1,-1,-1,-1],"split_conditions":[4.9E1,3.8E1,6.8E1,1.4E0,3.09E1,2.73E1,7.6E1,2.46E1,2.99E1,2.94E1,3.91E1,1E0,2E0,2.66E1,3.42E1,-9.125E-2,5.75E-2,-9.947891E-2,3.1E1,2.64E1,4.5E1,-9.671875E-2,5.66E1,2.65E1,1E0,5.7E1,2.96E1,2.59E1,6.9E1,1E0,3.54E1,1.9E1,-9.817391E-2,2.54E1,-9.468355E-2,4E1,2E0,3.96E1,2.9E-2,5.2E1,-8.0909096E-2,1E0,-9.5625006E-2,2.74E1,2.83E1,2.959403E1,6.1E1,1E0,-2.7857143E-2,7.1260504E-2,1E0,3.33E1,2.98E1,-2.6363635E-2,4.38E1,4.8750002E-2,-4.157895E-2,-6.418605E-2,1.45E-2,5.9333332E-2,-8.32E-2,4.210526E-3,7.404255E-2,3.6250003E-2,-5.156627E-2,-7.3750004E-2,1.6229508E-2,-2.5185186E-2,3.6250003E-2,8.6E-2,-0E0,7.827958E-2,4.505435E-2,-2.7142856E-3,7.738318E-2,-3.2236842E-3,-7.186046E-2,1.8157896E-2,6.514286E-2,3.124378E-2,5.42953E-2,6.471043E-2,2.5999999E-2,8.492857E-2,6.189189E-2,2.918919E-2,7.6153845E-2],"split_indices":[1,1,1,1,8,8,1,8,8,8,8,6,9,8,8,0,0,0,8,8,1,0,8,8,9,1,8,8,1,2,8,1,0,8,0,1,9,8,0,1,0,2,0,8,8,8,1,2,0,0,6,8,8,0,8,0,0,0,0,0,0,0,0,0,0,0,0,0,0,0,0,0,0,0,0,0,0,0,0,0,0,0,0,0,0,0,0],"split_type":[0,0,0,0,0,0,0,0,0,0,0,0,0,0,0,0,0,0,0,0,0,0,0,0,0,0,0,0,0,0,0,0,0,0,0,0,0,0,0,0,0,0,0,0,0,0,0,0,0,0,0,0,0,0,0,0,0,0,0,0,0,0,0,0,0,0,0,0,0,0,0,0,0,0,0,0,0,0,0,0,0,0,0,0,0,0,0],"sum_hessian":[1.316E3,4.275E2,8.885E2,2.845E2,1.43E2,4.0075E2,4.8775E2,1.6E1,2.685E2,8.525E1,5.775E1,6.875E1,3.32E2,1.8325E2,3.045E2,1.1E1,5E0,2.005E2,6.8E1,5.9E1,2.625E1,3.1E1,2.675E1,3.7E1,3.175E1,1.7675E2,1.5525E2,3.175E1,1.515E2,2.8625E2,1.825E1,1.15E1,5.65E1,4.025E1,1.875E1,1.175E1,1.45E1,2.275E1,4E0,3.25E1,4.5E0,8.75E0,2.3E1,6.35E1,1.1325E2,5.975E1,9.55E1,2.575E1,6E0,2.875E1,1.2275E2,1.9975E2,8.65E1,4.5E0,1.375E1,3E0,8.5E0,3.125E1,9E0,6.5E0,5.25E0,3.75E0,1.075E1,3E0,1.975E1,3E0,2.95E1,5.75E0,3E0,6.5E0,5.7E1,2.225E1,9.1E1,3.4E1,2.575E1,7.5E1,2.05E1,1.8E1,7.75E0,4.925E1,7.35E1,1.9325E2,6.5E0,6.9E1,1.75E1,8.25E0,5.5E0],"tree_param":{"num_deleted":"0","num_feature":"10","num_nodes":"87","size_leaf_vector":"1"}},{"base_weights":[-1.1043721E-2,-1.4777523E0,7.017668E-1,-1.7946488E0,-8.7090605E-1,1.8564464E-1,1.1257695E0,-7.031905E-1,-1.8295704E0,-4.7850502E-1,-1.2234502E0,-3.0973688E-1,5.9640616E-1,8.554552E-1,1.285487E0,-8.042665E-2,3.544484E-2,-9.305712E-1,-9.365646E-2,-9.323842E-1,4.2584378E-1,-1.4593759E0,2.6783994E-1,-4.5813265E-1,5.073616E-1,-6.167919E-1,7.639994E-1,5.617878E-1,1.2125025E0,1.14128E0,1.5110183E0,-8.647311E-2,5.460861E-2,3.5007242E-2,-1.1054044E0,1.1438532E0,-1.665271E-1,-8.6774546E-1,-9.405371E-2,-4.044114E-1,6.644837E-2,-1.2536118E0,-3.1874052E-1,1.0719286E0,-8.2882166E-2,-8.9132205E-2,2.7543133E-1,1.0825509E0,2.7662805E-1,9.6044683E-1,9.442858E-2,1.3028822E0,3.7274694E-1,1.1734922E0,-1.711654E-2,1.5680678E0,8.802123E-1,-9.020517E-2,-3.397984E-2,7.754832E-2,2.477271E-2,-8.26873E-2,6.1760914E-2,-4.3657963E-4,-8.967974E-2,3.4244828E-2,-7.43004E-2,-9.156948E-2,2.7363712E-2,-1.0970001E-2,-8.7269455E-2,7.178733E-2,-1.7230429E-2,4.7260378E-2,-7.625675E-2,6.2040843E-2,-1.3662676E-3,4.562896E-2,-4.9774066E-2,-1.4264317E-3,6.330341E-2,2.2896087E-2,-5.74645E-2,1.4979273E-2,6.850345E-2,4.9509495E-2,-4.5289057E-3,6.112311E-2,2.7417902E-2,5.558589E-2,8.154878E-2,5.8018576E-2,1.600341E-2],"categories":[],"categories_nodes":[],"categories_segments":[],"categories_sizes":[],"default_left":[0,0,0,0,0,0,0,0,0,0,0,0,0,0,0,0,0,0,0,0,0,0,0,0,0,0,0,0,0,0,0,0,0,0,0,0,0,0,0,0,0,0,0,0,0,0,0,0,0,0,0,0,0,0,0,0,0,0,0,0,0,0,0,0,0,0,0,0,0,0,0,0,0,0,0,0,0,0,0,0,0,0,0,0,0,0,0,0,0,0,0,0,0],"id":1,"left_children":[1,3,5,7,9,11,13,15,17,19,21,23,25,27,29,-1,-1,31,-1,33,35,37,39,41,43,45,47,49,51,53,55,-1,-1,-1,57,59,61,63,-1,65,-1,67,69,71,-1,-1,73,75,77,79,81,83,85,87,-1,89,91,-1,-1,-1,-1,-1,-1,-1,-1,-1,-1,-1,-1,-1,-1,-1,-1,-1,-1,-1,-1,-1,-1,-1,-1,-1,-1,-1,-1,-1,-1,-1,-1,-1,-1,-1,-1],"loss_changes":[1.3813629E3,8.1273926E1,1.9421936E2,9.240723E0,2.0036552E1,8.207001E1,1.9745789E1,1.4630759E1,8.680969E0,3.0372812E1,2.8091553E1,2.2405188E1,4.5293137E1,1.847519E1,7.9101562E0,0E0,0E0,2.5749287E1,0E0,1.4635178E1,1.0911051E1,1.5032822E1,8.829845E0,1.6676674E1,3.6532726E1,2.8964993E1,2.9706161E1,1.9030132E1,5.5853577E0,9.566437E0,2.5265808E0,0E0,0E0,0E0,1.1819599E1,2.0609856E0,3.2274723E1,2.3831547E1,0E0,1.022411E1,0E0,2.4776985E1,1.8368237E1,1.2578636E1,0E0,0E0,2.0971037E1,2.069629E1,6.416844E1,1.692405E1,2.2485891E1,4.390724E0,2.8960314E0,4.855255E0,0E0,9.088135E-1,1.3626366E0,0E0,0E0,0E0,0E0,0E0,0E0,0E0,0E0,0E0,0E0,0E0,0E0,0E0,0E0,0E0,0E0,0E0,0E0,0E0,0E0,0E0,0E0,0E0,0E0,0E0,0E0,0E0,0E0,0E0,0E0,0E0,0E0,0E0,0E0,0E0,0E0],"parents":[2147483647,0,0,1,1,2,2,3,3,4,4,5,5,6,6,7,7,8,8,9,9,10,10,11,11,12,12,13,13,14,14,17,17,19,19,20,20,21,21,22,22,23,23,24,24,25,25,26,26,27,27,28,28,29,29,30,30,34,34,35,35,36,36,37,37,39,39,41,41,42,42,43,43,46,46,47,47,48,48,49,49,50,50,51,51,52,52,53,53,55,55,56,56],"right_children":[2,4,6,8,10,12,14,16,18,20,22,24,26,28,30,-1,-1,32,-1,34,36,38,40,42,44,46,48,50,52,54,56,-1,-1,-1,58,60,62,64,-1,66,-1,68,70,72,-1,-1,74,76,78,80,82,84,86,88,-1,90,92,-1,-1,-1,-1,-1,-1,-1,-1,-1,-1,-1,-1,-1,-1,-1,-1,-1,-1,-1,-1,-1,-1,-1,-1,-1,-1,-1,-1,-1,-1,-1,-1,-1,-1,-1,-1],"split_conditions":[4.9E1,3.8E1,6.8E1,5.802E1,8.72E1,1.0098E2,7.6E1,5.792E1,1.4E0,8.228E1,4.57E1,1E0,2.73E1,1.5939E2,1.2729E2,-8.042665E-2,3.544484E-2,2.46E1,-9.365646E-2,2.08E1,8.351E1,1.0153E2,2.2158E2,2.56E1,3.3E1,5.9E1,2E0,8.301E1,7.5E1,1.1644E2,3.37E1,-8.647311E-2,5.460861E-2,3.5007242E-2,2.89E1,4E1,4.7E1,2E0,-9.405371E-2,4.75E1,6.644837E-2,6.6E1,6.6E1,7.918E1,-8.2882166E-2,-8.9132205E-2,2.4E1,2.1303E2,3.11E1,6.982E1,2.96E1,2.61E1,1E0,3.33E1,-1.711654E-2,2.61E1,2.0805E2,-9.020517E-2,-3.397984E-2,7.754832E-2,2.477271E-2,-8.26873E-2,6.1760914E-2,-4.3657963E-4,-8.967974E-2,3.4244828E-2,-7.43004E-2,-9.156948E-2,2.7363712E-2,-1.0970001E-2,-8.7269455E-2,7.178733E-2,-1.7230429E-2,4.7260378E-2,-7.625675E-2,6.2040843E-2,-1.3662676E-3,4.562896E-2,-4.9774066E-2,-1.4264317E-3,6.330341E-2,2.2896087E-2,-5.74645E-2,1.4979273E-2,6.850345E-2,4.9509495E-2,-4.5289057E-3,6.112311E-2,2.7417902E-2,5.558589E-2,8.154878E-2,5.8018576E-2,1.600341E-2],"split_indices":[1,1,1,7,7,7,1,7,1,7,8,2,8,7,7,0,0,8,0,8,7,7,7,8,8,1,9,7,1,7,8,0,0,0,8,1,1,9,0,8,0,1,1,7,0,0,8,7,8,7,8,8,9,8,0,8,7,0,0,0,0,0,0,0,0,0,0,0,0,0,0,0,0,0,0,0,0,0,0,0,0,0,0,0,0,0,0,0,0,0,0,0,0],"split_type":[0,0,0,0,0,0,0,0,0,0,0,0,0,0,0,0,0,0,0,0,0,0,0,0,0,0,0,0,0,0,0,0,0,0,0,0,0,0,0,0,0,0,0,0,0,0,0,0,0,0,0,0,0,0,0,0,0,0,0,0,0,0,0,0,0,0,0,0,0,0,0,0,0,0,0,0,0,0,0,0,0,0,0,0,0,0,0,0,0,0,0,0,0],"sum_hessian":[1.3191986E3,4.311381E2,8.880605E2,2.8183902E2,1.4929906E2,4.0127615E2,4.8678436E2,9.482068E0,2.7235696E2,7.190536E1,7.739369E1,1.8190265E2,2.193735E2,1.8338925E2,3.033951E2,5.736123E0,3.745945E0,1.3726114E1,2.5863086E2,4.792972E1,2.3975637E1,6.689863E1,1.0495067E1,1.5441971E2,2.7482939E1,2.622867E1,1.9314482E2,1.0219142E2,8.119782E1,1.8903073E2,1.1436439E2,9.979212E0,3.746902E0,4.2456255E0,4.3684097E1,1.049389E1,1.3481747E1,2.9211134E1,3.7687492E1,6.745969E0,3.749098E0,2.172564E1,1.3269408E2,2.2235638E1,5.247301E0,1.0986677E1,1.5241993E1,1.1593924E2,7.720559E1,5.446423E1,4.7727196E1,7.270254E1,8.495284E0,1.8528429E2,3.7464495E0,1.0337125E2,1.0993143E1,1.5226878E1,2.8457218E1,5.4965367E0,4.9973536E0,6.4888225E0,6.9929247E0,1.5732125E1,1.3479009E1,3.4976742E0,3.2482946E0,1.6477694E1,5.2479453E0,1.2520002E2,7.494055E0,1.7737135E1,4.4985023E0,1.1496211E1,3.7457821E0,1.0144546E2,1.4493781E1,5.171402E1,2.5491566E1,1.2994415E1,4.1469814E1,3.748417E1,1.0243026E1,4.999071E0,6.770347E1,3.2469625E0,5.2483215E0,1.7078995E2,1.4494332E1,1.497808E1,8.8393166E1,6.4946985E0,4.4984446E0],"tree_param":{"num_deleted":"0","num_feature":"10","num_nodes":"93","size_leaf_vector":"1"}},{"base_weights":[4.1222668E-4,-3.1470808E-1,9.68445E-1,-4.837018E-1,7.8891456E-1,-1.6978839E-1,1.0601385E0,-1.4172786E0,-3.5205683E-1,1.13852E0,3.241685E-1,-1.0017909E0,4.6328064E-2,9.345353E-1,1.3996416E0,-9.012089E-2,-6.1525285E-1,-1.8118069E-1,-8.651507E-1,1.3863014E0,2.6953498E-1,-6.1391126E-2,9.7101736E-1,3.991929E-2,-8.7850824E-2,7.647781E-2,8.603329E-1,9.1514546E-1,7.886579E-2,-1.0333245E0,1.8084455E-1,-4.5069972E-1,3.9482877E-1,-1.0315014E0,8.747788E-1,1.9305585E-2,7.354818E-2,7.553753E-1,-7.292841E-2,3.9875382E-1,-8.759918E-2,8.120331E-2,6.02009E-1,1.2237133E0,7.4445355E-1,8.289833E-2,-8.707793E-2,-1.988947E-2,-8.550137E-2,-2.1048725E-2,2.6133275E-2,-2.6473006E-2,3.173483E-2,6.2084656E-2,-5.905875E-3,-6.572791E-2,-3.7188556E-2,-2.9370426E-3,7.5299315E-2,-1.998561E-3,6.3979596E-2,4.950421E-2,-3.0370418E-2,-5.7157017E-3,4.9043994E-2,1.4406103E-2,6.63422E-2,-1.729053E-2,4.0245634E-2,-7.8864746E-2,3.6428224E-2],"categories":[],"categories_nodes":[],"categories_segments":[],"categories_sizes":[],"default_left":[0,0,0,0,0,0,0,0,0,0,0,0,0,0,0,0,0,0,0,0,0,0,0,0,0,0,0,0,0,0,0,0,0,0,0,0,0,0,0,0,0,0,0,0,0,0,0,0,0,0,0,0,0,0,0,0,0,0,0,0,0,0,0,0,0,0,0,0,0,0,0],"id":2,"left_children":[1,3,5,7,9,11,13,15,17,19,21,23,-1,25,27,-1,29,31,33,35,37,39,41,-1,-1,-1,43,45,-1,47,49,51,53,55,57,-1,-1,59,-1,61,-1,-1,63,65,67,-1,69,-1,-1,-1,-1,-1,-1,-1,-1,-1,-1,-1,-1,-1,-1,-1,-1,-1,-1,-1,-1,-1,-1,-1,-1],"loss_changes":[4.019298E2,1.8569666E2,3.4043274E1,1.0532762E2,2.0975296E1,2.365419E1,1.1238495E1,3.1444E1,6.613919E1,1.5601852E1,1.4691593E1,2.1473663E1,0E0,8.246338E0,5.082855E0,0E0,1.22690735E1,8.8603386E1,5.5562912E1,4.157707E0,1.6113222E1,2.990771E1,4.0844994E0,0E0,0E0,0E0,7.3058624E0,1.7910233E1,0E0,9.372791E0,2.9415612E0,3.3544243E1,7.930299E1,1.2892609E1,1.0229055E1,0E0,0E0,6.3146315E0,0E0,1.8575691E1,0E0,0E0,4.4595146E0,3.9477005E0,1.0492538E1,0E0,1.455712E1,0E0,0E0,0E0,0E0,0E0,0E0,0E0,0E0,0E0,0E0,0E0,0E0,0E0,0E0,0E0,0E0,0E0,0E0,0E0,0E0,0E0,0E0,0E0,0E0],"parents":[2147483647,0,0,1,1,2,2,3,3,4,4,5,5,6,6,7,7,8,8,9,9,10,10,11,11,13,13,14,14,16,16,17,17,18,18,19,19,20,20,21,21,22,22,26,26,27,27,29,29,30,30,31,31,32,32,33,33,34,34,37,37,39,39,42,42,43,43,44,44,46,46],"right_children":[2,4,6,8,10,12,14,16,18,20,22,24,-1,26,28,-1,30,32,34,36,38,40,42,-1,-1,-1,44,46,-1,48,50,52,54,56,58,-1,-1,60,-1,62,-1,-1,64,66,68,-1,70,-1,-1,-1,-1,-1,-1,-1,-1,-1,-1,-1,-1,-1,-1,-1,-1,-1,-1,-1,-1,-1,-1,-1,-1],"split_conditions":[1.6214E2,1E0,2.58E1,2.12E1,8.048E1,1E0,1E0,2E0,3.21E1,3.04E1,1.1198E2,1E0,4.6328064E-2,1.7412E2,2.0805E2,-9.012089E-2,3E0,2.959403E1,1E0,6.067E1,7.249E1,9.844E1,1.1386E2,3.991929E-2,-8.7850824E-2,7.647781E-2,2.82E1,1E0,7.886579E-2,8.21E1,1.96E1,1E0,2.96E1,3.67E1,1.0348E2,1.9305585E-2,7.354818E-2,6.603E1,-7.292841E-2,2E0,-8.759918E-2,8.120331E-2,2E0,1E0,2.959403E1,8.289833E-2,1E0,-1.988947E-2,-8.550137E-2,-2.1048725E-2,2.6133275E-2,-2.6473006E-2,3.173483E-2,6.2084656E-2,-5.905875E-3,-6.572791E-2,-3.7188556E-2,-2.9370426E-3,7.5299315E-2,-1.998561E-3,6.3979596E-2,4.950421E-2,-3.0370418E-2,-5.7157017E-3,4.9043994E-2,1.4406103E-2,6.63422E-2,-1.729053E-2,4.0245634E-2,-7.8864746E-2,3.6428224E-2],"split_indices":[7,2,8,8,7,2,3,5,8,8,7,9,0,7,7,0,9,8,3,7,7,7,7,0,0,0,8,9,0,7,8,3,8,8,7,0,0,7,0,9,0,0,9,5,8,0,0,0,0,0,0,0,0,0,0,0,0,0,0,0,0,0,0,0,0,0,0,0,0,0,0],"split_type":[0,0,0,0,0,0,0,0,0,0,0,0,0,0,0,0,0,0,0,0,0,0,0,0,0,0,0,0,0,0,0,0,0,0,0,0,0,0,0,0,0,0,0,0,0,0,0,0,0,0,0,0,0,0,0,0,0,0,0,0,0,0,0,0,0,0,0,0,0,0,0],"sum_hessian":[1.3153871E3,9.9278186E2,3.226052E2,8.6151373E2,1.3126814E2,2.3906052E1,2.9869913E2,1.0516901E2,7.563447E2,7.396385E1,5.730429E1,1.3692494E1,1.0213557E1,2.2098888E2,7.771025E1,7.0123245E1,3.5045753E1,5.6854846E2,1.8779625E2,5.7000427E1,1.6963427E1,3.6373848E1,2.093044E1,3.9906673E0,9.701827E0,2.2178768E1,1.9881012E2,2.265267E1,5.5057583E1,2.286552E1,1.2180234E1,3.875855E2,1.8096295E2,1.7183238E2,1.5963872E1,4.974463E0,5.2025967E1,1.37254095E1,3.2380183E0,2.9145908E1,7.2279415E0,6.23101E0,1.469943E1,4.5549736E1,1.5326038E2,1.2691534E1,9.961135E0,1.2686462E1,1.0179059E1,4.222273E0,7.9579606E0,3.6192706E2,2.5658451E1,6.780026E1,1.1316269E2,8.46455E1,8.7186874E1,6.741739E0,9.222133E0,5.74382E0,7.9815893E0,1.8429874E1,1.0716032E1,5.2353673E0,9.464064E0,4.9953923E0,4.0554344E1,7.717437E0,1.4554294E2,3.2365687E0,6.7245665E0],"tree_param":{"num_deleted":"0","num_feature":"10","num_nodes":"71","size_leaf_vector":"1"}},{"base_weights":[-4.4573835E-4,-2.8557006E-1,8.903217E-1,-9.676184E-1,-2.0013897E-2,-1.0028072E-1,9.698842E-1,-1.1712773E0,1.1469151E0,1.7442147E-1,-6.0230196E-1,4.4381377E-1,-8.1435375E-2,1.0228652E0,6.231421E-1,-8.766797E-2,-8.0195606E-1,6.910106E-2,-6.9012977E-3,4.0752407E-2,9.3756086E-1,-7.9604805E-1,-6.285589E-2,-4.6245116E-1,6.352259E-2,1.4123626E0,9.724045E-1,-8.061544E-2,9.355913E-1,-4.9910992E-1,-1.4145489E0,-1.7002597E-1,4.8536754E-1,1.2690547E0,-7.637928E-2,-3.231893E-2,-1.0754488E0,4.118649E-1,-9.1565055E-1,5.3616215E-2,-7.587333E-2,2.9461652E-2,7.5297415E-2,1.2344787E0,8.7006915E-1,-1.1916608E-2,1.1248107E0,-5.6865115E-2,-2.0484568E-3,-2.2585746E-2,-7.949217E-2,-3.9849494E-2,-2.2737568E-3,6.492246E-2,2.039126E-3,6.642998E-3,6.8038516E-2,-4.6126805E-2,6.511721E-2,1.2883062E-2,-7.892807E-2,-8.158523E-2,-3.735292E-2,4.444408E-2,-4.5668717E-2,-8.547313E-2,1.0884751E-2,2.9079312E-2,6.826957E-2,-3.2808963E-2,4.593935E-2,8.3864145E-2,4.019875E-2],"categories":[],"categories_nodes":[],"categories_segments":[],"categories_sizes":[],"default_left":[0,0,0,0,0,0,0,0,0,0,0,0,0,0,0,0,0,0,0,0,0,0,0,0,0,0,0,0,0,0,0,0,0,0,0,0,0,0,0,0,0,0,0,0,0,0,0,0,0,0,0,0,0,0,0,0,0,0,0,0,0,0,0,0,0,0,0,0,0,0,0,0,0],"id":3,"left_children":[1,3,5,7,9,11,13,15,17,19,21,23,-1,25,27,-1,29,-1,-1,31,33,35,37,39,-1,41,43,-1,45,47,49,51,53,55,57,59,61,63,65,-1,-1,-1,-1,67,69,-1,71,-1,-1,-1,-1,-1,-1,-1,-1,-1,-1,-1,-1,-1,-1,-1,-1,-1,-1,-1,-1,-1,-1,-1,-1,-1,-1],"loss_changes":[3.3477728E2,1.807828E2,2.537233E1,1.2182715E2,8.1665306E1,2.1276287E1,4.635956E0,5.3313995E1,7.8798676E0,5.499089E1,1.873867E1,1.4796875E1,0E0,3.399414E0,3.0806938E1,0E0,2.8490547E1,0E0,0E0,4.3319134E1,2.7237152E1,2.8159737E1,2.0241716E1,1.733245E1,0E0,9.680748E-1,4.8614807E0,0E0,8.699902E0,3.1312632E1,7.8120117E0,2.4348238E1,5.355865E1,5.9968643E0,2.5284721E1,1.6974802E1,1.6260498E1,2.1073742E1,1.66143E1,0E0,0E0,0E0,0E0,4.28421E0,1.3155853E1,0E0,4.180851E0,0E0,0E0,0E0,0E0,0E0,0E0,0E0,0E0,0E0,0E0,0E0,0E0,0E0,0E0,0E0,0E0,0E0,0E0,0E0,0E0,0E0,0E0,0E0,0E0,0E0,0E0],"parents":[2147483647,0,0,1,1,2,2,3,3,4,4,5,5,6,6,7,7,8,8,9,9,10,10,11,11,13,13,14,14,16,16,19,19,20,20,21,21,22,22,23,23,25,25,26,26,28,28,29,29,30,30,31,31,32,32,33,33,34,34,35,35,36,36,37,37,38,38,43,43,44,44,46,46],"right_children":[2,4,6,8,10,12,14,16,18,20,22,24,-1,26,28,-1,30,-1,-1,32,34,36,38,40,-1,42,44,-1,46,48,50,52,54,56,58,60,62,64,66,-1,-1,-1,-1,68,70,-1,72,-1,-1,-1,-1,-1,-1,-1,-1,-1,-1,-1,-1,-1,-1,-1,-1,-1,-1,-1,-1,-1,-1,-1,-1,-1,-1],"split_conditions":[1.6214E2,1E0,2.58E1,1E0,3.21E1,2.41E1,4.05E1,2.28E1,1E0,1E0,1.0592E2,1E0,-8.1435375E-2,1.7625E2,2.0387E2,-8.766797E-2,9.448E1,6.910106E-2,-6.9012977E-3,2.959403E1,8.847E1,7.12E1,1.2139E2,1E0,6.352259E-2,2.76E1,2.84E1,-8.061544E-2,4.22E1,1E0,1E0,7.12E1,2.96E1,6.136E1,1.161E2,1E0,8.496E1,2E0,3E0,5.3616215E-2,-7.587333E-2,2.9461652E-2,7.5297415E-2,2.66E1,1.844E2,-1.1916608E-2,2.0625E2,-5.6865115E-2,-2.0484568E-3,-2.2585746E-2,-7.949217E-2,-3.9849494E-2,-2.2737568E-3,6.492246E-2,2.039126E-3,6.642998E-3,6.8038516E-2,-4.6126805E-2,6.511721E-2,1.2883062E-2,-7.892807E-2,-8.158523E-2,-3.735292E-2,4.444408E-2,-4.5668717E-2,-8.547313E-2,1.0884751E-2,2.9079312E-2,6.826957E-2,-3.2808963E-2,4.593935E-2,8.3864145E-2,4.019875E-2],"split_indices":[7,4,8,2,8,8,8,8,0,2,7,2,0,7,7,0,7,0,0,8,7,7,7,5,0,8,8,0,8,6,9,7,8,7,7,0,7,9,9,0,0,0,0,8,7,0,7,0,0,0,0,0,0,0,0,0,0,0,0,0,0,0,0,0,0,0,0,0,0,0,0,0,0],"split_type":[0,0,0,0,0,0,0,0,0,0,0,0,0,0,0,0,0,0,0,0,0,0,0,0,0,0,0,0,0,0,0,0,0,0,0,0,0,0,0,0,0,0,0,0,0,0,0,0,0,0,0,0,0,0,0,0,0,0,0,0,0,0,0,0,0,0,0,0,0,0,0,0,0],"sum_hessian":[1.3163646E3,9.977789E2,3.185858E2,2.7877057E2,7.190083E2,2.3572807E1,2.9501297E2,2.5472993E2,2.4040644E1,5.39417E2,1.7959132E2,1.785937E1,5.713438E0,2.5396912E2,4.1043846E1,9.732268E1,1.5740726E2,2.0324194E1,3.7164502E0,4.6002493E2,7.939207E1,1.3164793E2,4.7943394E1,8.671819E0,9.187551E0,2.5805965E1,2.2816315E2,4.483793E0,3.656005E1,1.0665731E2,5.074994E1,3.123446E2,1.4768031E2,5.9715824E1,1.9676245E1,3.565639E1,9.599154E1,3.1055609E1,1.6887785E1,3.4873831E0,5.1844354E0,3.488422E0,2.2317543E1,6.0692722E1,1.6747043E2,4.9655533E0,3.15945E1,4.3859756E1,6.2797554E1,8.455276E0,4.2294662E1,5.0737988E1,2.6160663E2,5.144654E1,9.623378E1,4.724659E0,5.499116E1,1.2443047E1,7.233198E0,3.0672756E1,4.9836364E0,3.4046814E1,6.194472E1,2.3133492E1,7.922118E0,9.684512E0,7.203274E0,1.1173637E1,4.9519085E1,4.7311E0,1.6273933E2,9.939445E0,2.1655054E1],"tree_param":{"num_deleted":"0","num_feature":"10","num_nodes":"73","size_leaf_vector":"1"}},{"base_weights":[-6.510634E-3,-1.177792E0,7.38036E-1,-1.6275681E0,-6.457716E-1,2.7450186E-1,1.0422418E0,-4.685126E-1,-1.6685593E0,-7.706532E-1,1.4317946E-1,-2.227228E-1,7.4691814E-1,7.6573694E-1,1.1488461E0,-7.309218E-2,4.2763334E-2,-6.536469E-1,-8.588832E-2,-5.733111E-1,-1.1405716E0,-9.4077367E-1,7.5218606E-1,-8.523395E-1,-7.7051995E-3,5.572545E-1,1.3390512E0,-8.0000997E-1,8.597074E-1,1.1738242E0,1.3702372E-3,-7.579562E-2,4.7175642E-2,-1.0697178E0,1.8828876E-1,-1.4688462E0,-2.9210351E-2,4.030854E-2,-8.386022E-2,1.1381185E0,6.880155E-2,-1.2564895E0,4.6363807E-1,-1.14146E0,1.715649E-1,6.8499774E-1,-2.0630242E-1,1.3438607E-2,7.338227E-2,1.570492E-2,-8.036055E-2,5.51232E-1,1.1241353E0,1.1373014E0,1.5403984E0,1.49933845E-2,-1.1151104E-2,-3.8652238E-2,-8.777798E-2,2.3611419E-2,-4.493583E-2,-8.17452E-2,2.8036287E-2,-4.237979E-2,4.372069E-2,7.211833E-2,3.127003E-2,-1.4426549E-2,2.785549E-2,-8.8367656E-2,-6.8003945E-3,6.7000814E-2,-1.3259694E-2,1.73961E-2,-8.754123E-2,7.3209025E-2,2.6459335E-3,2.5221184E-2,6.9060266E-2,2.1944746E-2,-4.2939853E-2,4.7165036E-2,-1.4477528E-2,4.636343E-2,6.939994E-2,5.8319505E-2,-0E0,4.2904984E-2,8.3146535E-2],"categories":[],"categories_nodes":[],"categories_segments":[],"categories_sizes":[],"default_left":[0,0,0,0,0,0,0,0,0,0,0,0,0,0,0,0,0,0,0,0,0,0,0,0,0,0,0,0,0,0,0,0,0,0,0,0,0,0,0,0,0,0,0,0,0,0,0,0,0,0,0,0,0,0,0,0,0,0,0,0,0,0,0,0,0,0,0,0,0,0,0,0,0,0,0,0,0,0,0,0,0,0,0,0,0,0,0,0,0],"id":4,"left_children":[1,3,5,7,9,11,13,15,17,19,21,23,25,27,29,-1,-1,31,-1,33,35,37,39,41,43,45,47,49,51,53,55,-1,-1,57,59,61,63,-1,-1,65,67,69,71,73,75,77,79,-1,-1,-1,-1,81,83,85,87,-1,-1,-1,-1,-1,-1,-1,-1,-1,-1,-1,-1,-1,-1,-1,-1,-1,-1,-1,-1,-1,-1,-1,-1,-1,-1,-1,-1,-1,-1,-1,-1,-1,-1],"loss_changes":[1.1408289E3,1.2038318E2,1.1234851E2,1.2058228E1,2.3294868E1,7.500046E1,1.314679E1,1.5589457E1,1.1868835E1,1.3984581E1,2.2344019E1,2.0995943E1,1.7435799E1,2.0921387E1,9.793976E0,0E0,0E0,2.0709204E1,0E0,5.1132915E1,2.5122963E1,1.7116398E1,5.5026474E0,2.1684774E1,2.4122978E1,1.2453789E1,4.7781982E0,8.045789E0,9.836113E0,2.5111084E0,6.408715E-1,0E0,0E0,1.5002571E1,1.6998466E1,1.9047478E1,1.3245473E1,0E0,0E0,1.0217457E0,1.7510633E0,1.7066963E1,6.824312E0,1.5465563E1,1.5418804E1,1.2700012E1,8.282004E0,0E0,0E0,0E0,0E0,2.0858313E1,2.065071E0,1.0395935E1,6.2776184E-1,0E0,0E0,0E0,0E0,0E0,0E0,0E0,0E0,0E0,0E0,0E0,0E0,0E0,0E0,0E0,0E0,0E0,0E0,0E0,0E0,0E0,0E0,0E0,0E0,0E0,0E0,0E0,0E0,0E0,0E0,0E0,0E0,0E0,0E0],"parents":[2147483647,0,0,1,1,2,2,3,3,4,4,5,5,6,6,7,7,8,8,9,9,10,10,11,11,12,12,13,13,14,14,17,17,19,19,20,20,21,21,22,22,23,23,24,24,25,25,26,26,27,27,28,28,29,29,30,30,33,33,34,34,35,35,36,36,39,39,40,40,41,41,42,42,43,43,44,44,45,45,46,46,51,51,52,52,53,53,54,54],"right_children":[2,4,6,8,10,12,14,16,18,20,22,24,26,28,30,-1,-1,32,-1,34,36,38,40,42,44,46,48,50,52,54,56,-1,-1,58,60,62,64,-1,-1,66,68,70,72,74,76,78,80,-1,-1,-1,-1,82,84,86,88,-1,-1,-1,-1,-1,-1,-1,-1,-1,-1,-1,-1,-1,-1,-1,-1,-1,-1,-1,-1,-1,-1,-1,-1,-1,-1,-1,-1,-1,-1,-1,-1,-1,-1],"split_conditions":[5.4E1,3.8E1,6.8E1,5.802E1,1E0,1.0658E2,7.4E1,5.792E1,1.4E0,3.2E1,5E1,2.73E1,1E0,7.094E1,3.72E1,-7.309218E-2,4.2763334E-2,2.46E1,-8.588832E-2,2.94E1,1.4184E2,5.848E1,5.2E1,6.6E1,6.707E1,2.1333E2,2.85E1,6.194E1,1.7123E2,2.315E2,9.704E1,-7.579562E-2,4.7175642E-2,1.0348E2,1.0529E2,5.3E1,4.57E1,4.030854E-2,-8.386022E-2,5.1E1,3.32E1,9.262E1,2.13E1,2.81E1,6.853E1,2.0535E2,5.8E1,1.3438607E-2,7.338227E-2,1.570492E-2,-8.036055E-2,9.448E1,3.59E1,3.42E1,2.73E1,1.49933845E-2,-1.1151104E-2,-3.8652238E-2,-8.777798E-2,2.3611419E-2,-4.493583E-2,-8.17452E-2,2.8036287E-2,-4.237979E-2,4.372069E-2,7.211833E-2,3.127003E-2,-1.4426549E-2,2.785549E-2,-8.8367656E-2,-6.8003945E-3,6.7000814E-2,-1.3259694E-2,1.73961E-2,-8.754123E-2,7.3209025E-2,2.6459335E-3,2.5221184E-2,6.9060266E-2,2.1944746E-2,-4.2939853E-2,4.7165036E-2,-1.4477528E-2,4.636343E-2,6.939994E-2,5.8319505E-2,-0E0,4.2904984E-2,8.3146535E-2],"split_indices":[1,1,1,7,2,7,1,7,1,8,1,8,3,7,8,0,0,8,0,8,7,7,1,1,7,7,8,7,7,7,7,0,0,7,7,1,8,0,0,1,8,7,8,8,7,7,1,0,0,0,0,7,8,8,8,0,0,0,0,0,0,0,0,0,0,0,0,0,0,0,0,0,0,0,0,0,0,0,0,0,0,0,0,0,0,0,0,0,0],"split_type":[0,0,0,0,0,0,0,0,0,0,0,0,0,0,0,0,0,0,0,0,0,0,0,0,0,0,0,0,0,0,0,0,0,0,0,0,0,0,0,0,0,0,0,0,0,0,0,0,0,0,0,0,0,0,0,0,0,0,0,0,0,0,0,0,0,0,0,0,0,0,0,0,0,0,0,0,0,0,0,0,0,0,0,0,0,0,0,0,0],"sum_hessian":[1.3061326E3,5.074273E2,7.987053E2,2.7374927E2,2.3367805E2,3.1735947E2,4.8134586E2,9.858606E0,2.6389066E2,2.0187376E2,3.1804283E1,1.5477428E2,1.6258519E2,1.3647778E2,3.4486807E2,5.615855E0,4.2427516E0,1.2957318E1,2.5093333E2,1.3348373E2,6.839004E1,1.11858835E1,2.0618399E1,3.8527763E1,1.16246506E2,1.24740166E2,3.784502E1,7.2414985E0,1.2923628E2,3.3741324E2,7.4548416E0,8.488224E0,4.469094E0,8.06459E1,5.283783E1,5.2477543E1,1.5912495E1,3.2487593E0,7.9371243E0,1.2658135E1,7.9602633E0,2.9568249E1,8.959515E0,1.5214743E1,1.0103177E2,1.0706245E2,1.767772E1,4.4742136E0,3.3370808E1,3.2469769E0,3.9945216E0,6.1248276E1,6.7988014E1,3.1082074E2,2.6592499E1,3.2460642E0,4.208777E0,5.788128E1,2.276462E1,4.241584E1,1.042199E1,4.873391E1,3.7436311E0,8.440686E0,7.4718084E0,6.6837616E0,5.9743743E0,4.7145777E0,3.2456853E0,1.9850985E1,9.717262E0,3.7495377E0,5.2099767E0,4.4944777E0,1.0720264E1,7.46956E0,9.35622E1,8.649625E1,2.0566202E1,8.976103E0,8.701616E0,4.176819E1,1.948009E1,4.173958E1,2.6248434E1,3.0310318E2,7.717571E0,5.391283E0,2.1201218E1],"tree_param":{"num_deleted":"0","num_feature":"10","num_nodes":"89","size_leaf_vector":"1"}},{"base_weights":[3.3494346E-3,-1.3148018E0,6.39058E-1,-1.581039E0,-7.9161173E-1,1.7305537E-1,1.02017E0,-5.5934626E-1,-1.6136863E0,-5.835211E-1,-1.2465745E0,-2.8244543E-1,4.8695853E-1,7.6404E-1,1.1726695E0,-7.212762E-2,5.076923E-2,-7.253302E-1,-8.268618E-2,2.9581713E-2,-7.961342E-1,-1.4566362E0,4.085896E-2,-1.7590901E-1,-8.650472E-2,8.0005187E-1,8.918367E-2,6.317538E-1,1.2088691E0,1.0456036E0,6.4744495E-2,3.404816E-2,-7.445962E-2,8.7795854E-1,-9.6949106E-1,-1.4216763E0,-2.2691505E-1,-8.613646E-2,-6.5196705E-1,-3.4760135E-1,6.0772383E-1,2.9992396E-1,1.0491375E0,-4.8705992E-1,4.8717463E-1,1.3675745E0,5.023262E-1,1.2886871E0,1.2256781E-2,1.0975866E0,-3.5207298E-2,2.1514243E-2,6.6482E-2,-7.451202E-2,-1.6911307E-2,-8.6206935E-2,-2.6826052E-2,-7.6767676E-2,2.324275E-3,-7.6236404E-2,4.1751627E-2,-2.915099E-2,1.2238043E-2,4.7603697E-2,-3.6106836E-2,4.8659805E-2,-4.8399284E-3,-1.5812768E-2,5.959449E-2,7.7985734E-2,-4.634684E-2,3.1196654E-2,-7.597013E-2,7.311479E-2,3.1064738E-2,5.331055E-2,1.802208E-2,1.7476251E-2,6.925788E-2,1.670156E-2,5.800565E-2],"categories":[],"categories_nodes":[],"categories_segments":[],"categories_sizes":[],"default_left":[0,0,0,0,0,0,0,0,0,0,0,0,0,0,0,0,0,0,0,0,0,0,0,0,0,0,0,0,0,0,0,0,0,0,0,0,0,0,0,0,0,0,0,0,0,0,0,0,0,0,0,0,0,0,0,0,0,0,0,0,0,0,0,0,0,0,0,0,0,0,0,0,0,0,0,0,0,0,0,0,0],"id":5,"left_children":[1,3,5,7,9,11,13,15,17,19,21,23,25,27,29,-1,-1,31,-1,33,35,37,-1,39,-1,41,43,45,47,49,-1,-1,-1,51,53,55,57,-1,59,61,63,65,67,69,71,73,75,77,-1,79,-1,-1,-1,-1,-1,-1,-1,-1,-1,-1,-1,-1,-1,-1,-1,-1,-1,-1,-1,-1,-1,-1,-1,-1,-1,-1,-1,-1,-1,-1,-1],"loss_changes":[1.0917739E3,5.755542E1,1.5582922E2,8.212891E0,1.2825447E1,5.6896317E1,1.7786652E1,1.58179245E1,8.183899E0,1.3342045E1,2.0546867E1,2.4551231E1,2.9159153E1,9.848427E0,3.0834045E0,0E0,0E0,1.5655666E1,0E0,2.3726833E1,2.642582E1,7.3742065E0,0E0,2.0695517E1,0E0,1.5927803E1,2.4307482E1,1.2809704E1,2.6681633E0,1.4735199E1,0E0,0E0,0E0,2.321371E0,3.5273924E0,8.416588E0,1.483246E1,0E0,1.6708183E1,1.7717861E1,1.3375466E1,1.2265929E1,1.7465744E1,4.0342384E1,1.8059235E1,3.5320282E-1,9.384705E0,2.7251167E0,0E0,6.581543E0,0E0,0E0,0E0,0E0,0E0,0E0,0E0,0E0,0E0,0E0,0E0,0E0,0E0,0E0,0E0,0E0,0E0,0E0,0E0,0E0,0E0,0E0,0E0,0E0,0E0,0E0,0E0,0E0,0E0,0E0,0E0],"parents":[2147483647,0,0,1,1,2,2,3,3,4,4,5,5,6,6,7,7,8,8,9,9,10,10,11,11,12,12,13,13,14,14,17,17,19,19,20,20,21,21,23,23,25,25,26,26,27,27,28,28,29,29,33,33,34,34,35,35,36,36,38,38,39,39,40,40,41,41,42,42,43,43,44,44,45,45,46,46,47,47,49,49],"right_children":[2,4,6,8,10,12,14,16,18,20,22,24,26,28,30,-1,-1,32,-1,34,36,38,-1,40,-1,42,44,46,48,50,-1,-1,-1,52,54,56,58,-1,60,62,64,66,68,70,72,74,76,78,-1,80,-1,-1,-1,-1,-1,-1,-1,-1,-1,-1,-1,-1,-1,-1,-1,-1,-1,-1,-1,-1,-1,-1,-1,-1,-1,-1,-1,-1,-1,-1,-1],"split_conditions":[4.9E1,3.8E1,6.8E1,5.802E1,1.0153E2,9.616E1,7.6E1,5.792E1,1.4E0,4E1,2.241E2,9.305E1,2E0,2.1938E2,1.0403E2,-7.212762E-2,5.076923E-2,7.094E1,-8.268618E-2,2E0,4.5E1,3E0,4.085896E-2,1E0,-8.650472E-2,5.7E1,1.6214E2,1E0,7.5E1,9.979E1,6.4744495E-2,3.404816E-2,-7.445962E-2,9.192E1,8.132E1,3E0,1E0,-8.613646E-2,1.4184E2,8.609E1,6.2E1,1.0529E2,1.0726E2,9.678E1,6.4E1,1.844E2,1E0,1E0,1.2256781E-2,1E0,-3.5207298E-2,2.1514243E-2,6.6482E-2,-7.451202E-2,-1.6911307E-2,-8.6206935E-2,-2.6826052E-2,-7.6767676E-2,2.324275E-3,-7.6236404E-2,4.1751627E-2,-2.915099E-2,1.2238043E-2,4.7603697E-2,-3.6106836E-2,4.8659805E-2,-4.8399284E-3,-1.5812768E-2,5.959449E-2,7.7985734E-2,-4.634684E-2,3.1196654E-2,-7.597013E-2,7.311479E-2,3.1064738E-2,5.331055E-2,1.802208E-2,1.7476251E-2,6.925788E-2,1.670156E-2,5.800565E-2],"split_indices":[1,1,1,7,7,7,1,7,1,1,7,7,9,7,7,0,0,7,0,9,1,9,0,2,0,1,7,4,1,7,0,0,0,7,7,9,9,0,7,7,1,7,7,7,1,7,9,9,0,5,0,0,0,0,0,0,0,0,0,0,0,0,0,0,0,0,0,0,0,0,0,0,0,0,0,0,0,0,0,0,0],"split_type":[0,0,0,0,0,0,0,0,0,0,0,0,0,0,0,0,0,0,0,0,0,0,0,0,0,0,0,0,0,0,0,0,0,0,0,0,0,0,0,0,0,0,0,0,0,0,0,0,0,0,0,0,0,0,0,0,0,0,0,0,0,0,0,0,0,0,0,0,0,0,0,0,0,0,0,0,0,0,0,0,0],"sum_hessian":[1.3009729E3,4.2288632E2,8.780866E2,2.7879968E2,1.4408662E2,3.958183E2,4.822683E2,9.289289E0,2.695104E2,1.0058398E2,4.350265E1,1.6139777E2,2.3442055E2,1.8246909E2,2.9979922E2,6.045847E0,3.2434433E0,1.2554798E1,2.569556E2,2.5999857E1,7.458412E1,3.9794735E1,3.7079177E0,1.5144324E2,9.954527E0,1.3046628E2,1.0395428E2,1.4268231E2,3.9786777E1,1.520718E2,1.4772745E2,4.4112206E0,8.143578E0,1.4180015E1,1.1819841E1,3.4736855E1,3.9847263E1,2.8954643E1,1.0840092E1,1.2478675E2,2.6656487E1,4.424143E1,8.622484E1,4.2272976E1,6.16813E1,1.9796495E1,1.2288581E2,3.633639E1,3.450387E0,1.4810173E2,3.9700603E0,8.213458E0,5.966557E0,5.6444407E0,6.1754007E0,2.509943E1,9.637426E0,6.152529E0,3.3694733E1,6.857256E0,3.9828353E0,8.942985E1,3.5356903E1,2.1459185E1,5.1973014E0,1.5958117E1,2.8283314E1,7.980193E0,7.824465E1,6.9873343E0,3.528564E1,5.843739E1,3.2439127E0,1.6596537E1,3.199957E0,2.3253027E1,9.963278E1,3.9119864E0,3.2424404E1,1.1810954E1,1.3629079E2],"tree_param":{"num_deleted":"0","num_feature":"10","num_nodes":"81","size_leaf_vector":"1"}},{"base_weights":[5.4562613E-3,-1.0699866E0,6.8710256E-1,-1.5052748E0,-5.689454E-1,2.7310443E-1,9.569804E-1,-3.0475345E-1,-1.5443741E0,-6.243499E-1,8.0824673E-1,-1.2818238E-1,7.050177E-1,8.119675E-1,1.1493682E0,-6.774571E-2,5.342206E-2,-5.9728163E-1,-1.5934615E0,2.3868512E-1,-7.3010325E-1,7.047309E-2,2.0222403E-3,-1.0220106E0,-3.7027576E-3,9.8411655E-1,2.0160583E-1,3.4027842E-1,9.546745E-1,1.0675557E0,7.0724085E-2,3.943295E-2,-7.3129445E-2,-1.2966015E0,-8.14258E-2,-3.8218266E-1,8.209695E-2,-8.411899E-2,-6.386162E-1,-1.997444E-1,-8.188908E-2,6.5842204E-2,-1.0137632E-1,1.1024972E0,2.3393938E-1,-8.932209E-1,4.8727515E-1,6.708298E-1,-7.691169E-1,9.810335E-1,-2.8510808E-3,1.2394173E0,8.356386E-1,-2.163613E-2,-7.9743855E-2,-4.936743E-2,4.684378E-2,-2.7477313E-2,-8.8912934E-2,3.6451346E-4,-1.9949747E-2,-2.4121545E-2,1.2107838E-2,4.8002813E-2,7.4332744E-2,-3.0161126E-2,6.0443927E-2,4.1023083E-2,-8.30075E-2,4.5773443E-2,8.562206E-3,-2.8128913E-2,4.5698058E-2,-9.618979E-3,-8.1673905E-2,5.1738948E-2,2.7643396E-2,3.6353983E-2,6.650393E-2,8.681901E-3,5.3573698E-2],"categories":[],"categories_nodes":[],"categories_segments":[],"categories_sizes":[],"default_left":[0,0,0,0,0,0,0,0,0,0,0,0,0,0,0,0,0,0,0,0,0,0,0,0,0,0,0,0,0,0,0,0,0,0,0,0,0,0,0,0,0,0,0,0,0,0,0,0,0,0,0,0,0,0,0,0,0,0,0,0,0,0,0,0,0,0,0,0,0,0,0,0,0,0,0,0,0,0,0,0,0],"id":6,"left_children":[1,3,5,7,9,11,13,15,17,19,21,23,25,27,29,-1,-1,31,33,35,37,-1,-1,39,41,43,45,47,49,51,-1,-1,-1,53,-1,55,-1,-1,57,59,-1,-1,61,63,65,67,69,71,73,75,-1,77,79,-1,-1,-1,-1,-1,-1,-1,-1,-1,-1,-1,-1,-1,-1,-1,-1,-1,-1,-1,-1,-1,-1,-1,-1,-1,-1,-1,-1],"loss_changes":[9.443496E2,1.07922424E2,8.771884E1,1.1862671E1,1.8342987E1,5.435055E1,1.2173187E1,1.5519591E1,1.0821411E1,2.081446E1,4.1449094E0,1.8011566E1,2.0883408E1,1.8096252E1,2.6280212E0,0E0,0E0,1.8503033E1,1.40625E-1,2.277653E1,1.6233643E1,0E0,0E0,9.5163E0,1.8589863E1,8.19487E0,1.7660088E1,2.460918E1,5.7713623E0,5.090378E0,0E0,0E0,0E0,7.103817E0,0E0,1.5526945E1,0E0,0E0,1.7608688E1,4.4174525E-1,0E0,0E0,1.7827885E1,2.8766022E0,1.2675419E1,1.6828278E1,5.75638E0,1.5916012E1,7.222433E0,4.0016937E0,0E0,2.9589844E0,1.0766777E1,0E0,0E0,0E0,0E0,0E0,0E0,0E0,0E0,0E0,0E0,0E0,0E0,0E0,0E0,0E0,0E0,0E0,0E0,0E0,0E0,0E0,0E0,0E0,0E0,0E0,0E0,0E0,0E0],"parents":[2147483647,0,0,1,1,2,2,3,3,4,4,5,5,6,6,7,7,8,8,9,9,10,10,11,11,12,12,13,13,14,14,17,17,18,18,19,19,20,20,23,23,24,24,25,25,26,26,27,27,28,28,29,29,33,33,35,35,38,38,39,39,42,42,43,43,44,44,45,45,46,46,47,47,48,48,49,49,51,51,52,52],"right_children":[2,4,6,8,10,12,14,16,18,20,22,24,26,28,30,-1,-1,32,34,36,38,-1,-1,40,42,44,46,48,50,52,-1,-1,-1,54,-1,56,-1,-1,58,60,-1,-1,62,64,66,68,70,72,74,76,-1,78,80,-1,-1,-1,-1,-1,-1,-1,-1,-1,-1,-1,-1,-1,-1,-1,-1,-1,-1,-1,-1,-1,-1,-1,-1,-1,-1,-1,-1],"split_conditions":[5.4E1,3.8E1,6.8E1,5.802E1,2.241E2,1.1052E2,1.2413E2,5.792E1,1.4E0,6.441E1,2.2698E2,6.707E1,2E0,7.4E1,2.315E2,-6.774571E-2,5.342206E-2,7.094E1,1E0,6.414E1,7.318E1,7.047309E-2,2.0222403E-3,2E0,6.853E1,2.1333E2,1.5939E2,9.448E1,1.1522E2,2.0138E2,7.0724085E-2,3.943295E-2,-7.3129445E-2,7.634E1,-8.14258E-2,1E0,8.209695E-2,-8.411899E-2,1.7412E2,6.017E1,-8.188908E-2,6.5842204E-2,1E0,2.0535E2,1E0,1.1177E2,5.8E1,7.094E1,2E0,1E0,-2.8510808E-3,7.2E1,2E0,-2.163613E-2,-7.9743855E-2,-4.936743E-2,4.684378E-2,-2.7477313E-2,-8.8912934E-2,3.6451346E-4,-1.9949747E-2,-2.4121545E-2,1.2107838E-2,4.8002813E-2,7.4332744E-2,-3.0161126E-2,6.0443927E-2,4.1023083E-2,-8.30075E-2,4.5773443E-2,8.562206E-3,-2.8128913E-2,4.5698058E-2,-9.618979E-3,-8.1673905E-2,5.1738948E-2,2.7643396E-2,3.6353983E-2,6.650393E-2,8.681901E-3,5.3573698E-2],"split_indices":[1,1,1,7,7,7,7,7,1,7,7,7,9,1,7,0,0,7,9,7,7,0,0,9,7,7,7,7,7,7,0,0,0,7,0,2,0,0,7,7,0,0,0,7,3,7,1,7,9,3,0,1,9,0,0,0,0,0,0,0,0,0,0,0,0,0,0,0,0,0,0,0,0,0,0,0,0,0,0,0,0],"split_type":[0,0,0,0,0,0,0,0,0,0,0,0,0,0,0,0,0,0,0,0,0,0,0,0,0,0,0,0,0,0,0,0,0,0,0,0,0,0,0,0,0,0,0,0,0,0,0,0,0,0,0,0,0,0,0,0,0,0,0,0,0,0,0,0,0,0,0,0,0,0,0,0,0,0,0,0,0,0,0,0,0],"sum_hessian":[1.2862587E3,4.9871408E2,7.8754456E2,2.656886E2,2.3302547E2,3.117288E2,4.7581577E2,8.738258E0,2.5695035E2,2.2460872E2,8.416754E0,1.618381E2,1.4989067E2,2.745859E2,2.0122984E2,5.000344E0,3.7379143E0,1.3410628E1,2.4353972E2,2.4277946E1,2.0033076E2,4.178721E0,4.238033E0,1.880376E1,1.4303435E2,9.568692E1,5.420375E1,6.4727486E1,2.0985843E2,1.5790521E2,4.3324627E1,5.1442413E0,8.266387E0,3.0034258E1,2.1350546E2,1.7286112E1,6.9918346E0,1.5939223E1,1.8439154E2,8.6884575E0,1.0115303E1,8.920689E0,1.3411366E2,8.2124435E1,1.3562481E1,1.0703977E1,4.3499775E1,5.024279E1,1.4484697E1,2.0465543E2,5.203001E0,8.7952675E1,6.995254E1,8.423565E0,2.1610693E1,1.2074008E1,5.212104E0,1.7248106E2,1.1910479E1,4.4873405E0,4.201117E0,6.3530724E1,7.058293E1,6.2652935E1,1.9471504E1,7.4467754E0,6.115705E0,3.2474482E0,7.456528E0,1.7532124E1,2.5967653E1,7.989054E0,4.225374E1,9.490504E0,4.9941936E0,1.803648E2,2.4290613E1,1.4745691E1,7.3206985E1,1.8941942E1,5.1010593E1],"tree_param":{"num_deleted":"0","num_feature":"10","num_nodes":"81","size_leaf_vector":"1"}},{"base_weights":[9.315267E-3,-1.03455E0,6.7456156E-1,-1.4635566E0,-5.425137E-1,2.499338E-1,9.575756E-1,-5.6422096E-1,-1.5103776E0,-9.959231E-1,-2.876088E-1,-2.0310013E-1,6.591175E-1,7.2424763E-1,1.0432569E0,-7.1348585E-2,5.4429483E-2,-3.6600032E-1,-7.738516E-2,-7.2292095E-1,-8.200549E-2,4.3567058E-1,-8.261714E-1,-7.973023E-2,-1.2231518E-1,-7.5081545E-1,7.273523E-1,2.98875E-1,1.159168E0,1.0840743E0,3.5445866E-1,-6.5252855E-2,4.1022643E-2,-1.4141903E0,-2.0803043E-1,8.3110434E-1,-2.5541374E-1,-1.497148E0,-1.5995999E-1,-7.1265113E-1,6.592952E-2,-7.877439E-2,1.9646524E-2,9.7626936E-1,3.4925357E-1,4.7991553E-1,-6.970552E-1,1.0096895E0,7.335877E-2,9.8211575E-1,1.2061014E0,-4.7299734E-1,9.918558E-1,-1.316539E-4,-8.315834E-2,6.7275755E-2,-3.7606373E-2,5.3730316E-2,9.986467E-3,-7.798494E-2,1.6739175E-2,-8.247136E-2,-3.2729596E-2,-2.1588769E-2,6.391837E-2,-5.3410288E-2,2.1481859E-2,3.3257347E-2,-1.8978776E-2,5.3682446E-2,1.2733619E-2,3.4177743E-2,-8.743496E-2,-3.663552E-2,3.4196608E-2,4.2946987E-2,-8.334019E-2,5.779478E-2,-1.506173E-5,2.275883E-2,5.549229E-2,6.978805E-2,5.0272126E-2,4.2675953E-2,-8.2979515E-2,5.8204025E-2,2.0074558E-2],"categories":[],"categories_nodes":[],"categories_segments":[],"categories_sizes":[],"default_left":[0,0,0,0,0,0,0,0,0,0,0,0,0,0,0,0,0,0,0,0,0,0,0,0,0,0,0,0,0,0,0,0,0,0,0,0,0,0,0,0,0,0,0,0,0,0,0,0,0,0,0,0,0,0,0,0,0,0,0,0,0,0,0,0,0,0,0,0,0,0,0,0,0,0,0,0,0,0,0,0,0,0,0,0,0,0,0],"id":7,"left_children":[1,3,5,7,9,11,13,15,17,19,21,23,25,27,29,-1,-1,31,-1,33,-1,35,37,-1,39,41,43,45,47,49,51,-1,-1,53,55,57,59,61,63,65,67,-1,-1,69,71,73,75,77,-1,79,81,83,85,-1,-1,-1,-1,-1,-1,-1,-1,-1,-1,-1,-1,-1,-1,-1,-1,-1,-1,-1,-1,-1,-1,-1,-1,-1,-1,-1,-1,-1,-1,-1,-1,-1,-1],"loss_changes":[8.9750653E2,1.0518817E2,9.451367E1,1.0226501E1,2.6861221E1,5.898581E1,8.528381E0,2.2927565E1,1.0094299E1,1.341806E1,5.9847942E1,1.6629711E1,1.661348E1,2.368509E1,9.130554E0,0E0,0E0,1.1613604E1,0E0,2.1313503E1,0E0,1.8227844E1,3.888869E1,0E0,1.6119785E1,8.410353E0,1.4575386E1,1.248906E1,1.2246094E0,2.624054E0,1.1513459E1,0E0,0E0,8.9154625E0,3.16442E1,6.1341763E0,1.957288E1,4.2840195E0,1.8178833E1,1.4754906E1,2.9648655E1,0E0,0E0,6.3187714E0,4.6812614E1,1.4801012E1,1.767376E1,6.999855E0,0E0,1.1600296E1,3.7802887E0,1.6730198E1,6.128769E-1,0E0,0E0,0E0,0E0,0E0,0E0,0E0,0E0,0E0,0E0,0E0,0E0,0E0,0E0,0E0,0E0,0E0,0E0,0E0,0E0,0E0,0E0,0E0,0E0,0E0,0E0,0E0,0E0,0E0,0E0,0E0,0E0,0E0,0E0],"parents":[2147483647,0,0,1,1,2,2,3,3,4,4,5,5,6,6,7,7,8,8,9,9,10,10,11,11,12,12,13,13,14,14,17,17,19,19,21,21,22,22,24,24,25,25,26,26,27,27,28,28,29,29,30,30,33,33,34,34,35,35,36,36,37,37,38,38,39,39,40,40,43,43,44,44,45,45,46,46,47,47,49,49,50,50,51,51,52,52],"right_children":[2,4,6,8,10,12,14,16,18,20,22,24,26,28,30,-1,-1,32,-1,34,-1,36,38,-1,40,42,44,46,48,50,52,-1,-1,54,56,58,60,62,64,66,68,-1,-1,70,72,74,76,78,-1,80,82,84,86,-1,-1,-1,-1,-1,-1,-1,-1,-1,-1,-1,-1,-1,-1,-1,-1,-1,-1,-1,-1,-1,-1,-1,-1,-1,-1,-1,-1,-1,-1,-1,-1,-1,-1],"split_conditions":[5.4E1,3.8E1,6.8E1,1.4E0,2.94E1,1.0447E2,7.4E1,2.46E1,5.802E1,1.0348E2,3.2E1,5.974E1,2.38E1,1.7123E2,3.42E1,-7.1348585E-2,5.4429483E-2,5.792E1,-7.738516E-2,8.228E1,-8.200549E-2,1E0,3.91E1,-7.973023E-2,2.73E1,1.8299E2,2E0,1.0325E2,3.78E1,2.959403E1,1.8787E2,-6.5252855E-2,4.1022643E-2,2.08E1,8.351E1,1.025E2,4.5E1,1.6214E2,2.2158E2,6.6E1,2.96E1,-7.877439E-2,1.9646524E-2,2.1303E2,3.59E1,7.094E1,1E0,2.241E2,7.335877E-2,7.8E1,3E1,6.647E1,3.72E1,-1.316539E-4,-8.315834E-2,6.7275755E-2,-3.7606373E-2,5.3730316E-2,9.986467E-3,-7.798494E-2,1.6739175E-2,-8.247136E-2,-3.2729596E-2,-2.1588769E-2,6.391837E-2,-5.3410288E-2,2.1481859E-2,3.3257347E-2,-1.8978776E-2,5.3682446E-2,1.2733619E-2,3.4177743E-2,-8.743496E-2,-3.663552E-2,3.4196608E-2,4.2946987E-2,-8.334019E-2,5.779478E-2,-1.506173E-5,2.275883E-2,5.549229E-2,6.978805E-2,5.0272126E-2,4.2675953E-2,-8.2979515E-2,5.8204025E-2,2.0074558E-2],"split_indices":[1,1,1,1,8,7,1,8,7,7,8,7,8,7,8,0,0,7,0,7,0,0,8,0,8,7,9,7,8,8,7,0,0,8,7,7,1,7,7,1,8,0,0,7,8,7,5,7,0,1,8,7,8,0,0,0,0,0,0,0,0,0,0,0,0,0,0,0,0,0,0,0,0,0,0,0,0,0,0,0,0,0,0,0,0,0,0],"split_type":[0,0,0,0,0,0,0,0,0,0,0,0,0,0,0,0,0,0,0,0,0,0,0,0,0,0,0,0,0,0,0,0,0,0,0,0,0,0,0,0,0,0,0,0,0,0,0,0,0,0,0,0,0,0,0,0,0,0,0,0,0,0,0,0,0,0,0,0,0,0,0,0,0,0,0,0,0,0,0,0,0,0,0,0,0,0,0],"sum_hessian":[1.2904878E3,5.0202866E2,7.884592E2,2.6702856E2,2.3500006E2,3.162306E2,4.722286E2,1.3965559E1,2.5306302E2,8.338341E1,1.5161665E2,1.5019699E2,1.6603362E2,1.2968602E2,3.4254257E2,9.305384E0,4.660175E0,8.4192295E0,2.4464378E2,6.0163826E1,2.3219578E1,6.4713295E1,8.6903366E1,7.1452236E0,1.4305176E2,7.134978E0,1.5889864E2,6.653185E1,6.3154175E1,3.2270062E2,1.9841963E1,4.690836E0,3.728394E0,2.4854486E1,3.530934E1,4.112433E1,2.3588966E1,4.2600647E1,4.4302715E1,3.4041855E1,1.0900991E2,3.9772334E0,3.1577442E0,9.470448E1,6.419415E1,5.6821377E1,9.710476E0,4.561812E1,1.7536055E1,1.8118283E2,1.4151779E2,8.677737E0,1.1164226E1,3.9383667E0,2.0916119E1,8.728985E0,2.6580357E1,2.9057388E1,1.2066939E1,6.8898206E0,1.6699146E1,3.51682E1,7.4324465E0,3.7908157E1,6.394559E0,2.6077297E1,7.964558E0,4.6371E1,6.2638912E1,8.289178E1,1.1812708E1,5.5993614E1,8.200537E0,7.7392917E0,4.9082085E1,3.7325754E0,5.9779005E0,3.9809807E1,5.8083115E0,3.6393036E1,1.447898E2,6.943482E1,7.208297E1,4.190035E0,4.4877024E0,7.7594166E0,3.4048088E0],"tree_param":{"num_deleted":"0","num_feature":"10","num_nodes":"87","size_leaf_vector":"1"}},{"base_weights":[-8.599131E-3,-1.2112572E0,5.25357E-1,-1.4274361E0,-7.6272374E-1,1.1577677E-1,8.909295E-1,-6.6499406E-1,-1.4723631E0,-7.912864E-2,-6.1395586E-1,-5.5831754E-1,2.660799E-1,5.80803E-1,1.0062395E0,-7.04471E-2,4.5781072E-2,-7.659896E-2,-1.2824631E0,-3.307393E-2,-8.190053E-1,-3.6647865E-1,-8.10797E-2,7.1382724E-2,1.990836E-1,8.96959E-3,6.7246544E-1,1.0482088E0,3.7874654E-1,-1.4301408E-2,-7.648184E-2,5.676808E-1,-8.053495E-1,-1.0741488E0,3.3222967E-1,-5.3090084E-1,4.6714347E-2,4.4937694E-1,-5.645275E-2,6.056737E-1,-6.8600106E-1,6.404688E-2,5.84564E-1,9.499125E-1,1.1690054E0,5.747779E-2,4.3485317E-2,2.9406225E-2,-6.1051726E-2,5.2713823E-2,-1.5895119E-2,4.6133786E-3,-7.227445E-2,-4.0773723E-2,-7.831618E-2,-1.0972197E-2,5.1246136E-2,-4.694851E-3,-5.1421065E-2,-4.961722E-3,3.73397E-2,-2.9195258E-2,1.54955555E-2,2.0583612E-3,5.483188E-2,-4.269219E-2,-1.4614894E-2,2.0834854E-2,4.9831655E-2,5.3225357E-2,2.6868442E-2,6.967309E-2,5.063611E-2,1.793609E-2,-2.4283888E-2],"categories":[],"categories_nodes":[],"categories_segments":[],"categories_sizes":[],"default_left":[0,0,0,0,0,0,0,0,0,0,0,0,0,0,0,0,0,0,0,0,0,0,0,0,0,0,0,0,0,0,0,0,0,0,0,0,0,0,0,0,0,0,0,0,0,0,0,0,0,0,0,0,0,0,0,0,0,0,0,0,0,0,0,0,0,0,0,0,0,0,0,0,0,0,0],"id":8,"left_children":[1,3,5,7,9,11,13,15,17,-1,19,21,23,25,27,-1,-1,-1,29,31,33,35,-1,-1,37,39,41,43,45,47,-1,49,51,53,55,57,-1,59,61,63,65,-1,67,69,71,-1,73,-1,-1,-1,-1,-1,-1,-1,-1,-1,-1,-1,-1,-1,-1,-1,-1,-1,-1,-1,-1,-1,-1,-1,-1,-1,-1,-1,-1],"loss_changes":[8.184976E2,3.669409E1,1.3194453E2,7.821533E0,1.4635017E1,4.242086E1,1.5923523E1,2.084915E1,5.565796E-1,0E0,1.3176319E1,1.4774792E1,2.6182661E1,6.6832848E0,8.365295E0,0E0,0E0,0E0,2.0415169E1,1.4527897E1,2.4601917E1,1.4577336E1,0E0,0E0,2.0836782E1,8.276126E0,4.9986725E0,2.432495E0,5.7520475E0,9.35287E0,0E0,7.9685826E0,8.160049E0,7.0995255E0,6.2750683E0,1.2689341E1,0E0,2.6959923E1,3.1395992E1,2.8392103E0,2.4091148E-1,0E0,6.2862587E0,7.784088E0,3.1569061E0,0E0,3.013646E0,0E0,0E0,0E0,0E0,0E0,0E0,0E0,0E0,0E0,0E0,0E0,0E0,0E0,0E0,0E0,0E0,0E0,0E0,0E0,0E0,0E0,0E0,0E0,0E0,0E0,0E0,0E0,0E0],"parents":[2147483647,0,0,1,1,2,2,3,3,4,4,5,5,6,6,7,7,8,8,10,10,11,11,12,12,13,13,14,14,18,18,19,19,20,20,21,21,24,24,25,25,26,26,27,27,28,28,29,29,31,31,32,32,33,33,34,34,35,35,37,37,38,38,39,39,40,40,42,42,43,43,44,44,46,46],"right_children":[2,4,6,8,10,12,14,16,18,-1,20,22,24,26,28,-1,-1,-1,30,32,34,36,-1,-1,38,40,42,44,46,48,-1,50,52,54,56,58,-1,60,62,64,66,-1,68,70,72,-1,74,-1,-1,-1,-1,-1,-1,-1,-1,-1,-1,-1,-1,-1,-1,-1,-1,-1,-1,-1,-1,-1,-1,-1,-1,-1,-1,-1,-1],"split_conditions":[4.8E1,3.8E1,6.8E1,1.4E0,1E0,2.73E1,7.4E1,2.46E1,2.99E1,-7.912864E-2,4E1,2.65E1,2.75E1,2.66E1,3.42E1,-7.04471E-2,4.5781072E-2,-7.659896E-2,3.1E1,2E0,4.11E1,2.64E1,-8.10797E-2,7.1382724E-2,2E0,2.33E1,2.73E1,2.959403E1,1E0,1E0,-7.648184E-2,2.97E1,2.64E1,3.09E1,1E0,1E0,4.6714347E-2,5.7E1,1E0,2.28E1,2.61E1,6.404688E-2,3.63E1,2.72E1,2.96E1,5.747779E-2,7.8E1,2.9406225E-2,-6.1051726E-2,5.2713823E-2,-1.5895119E-2,4.6133786E-3,-7.227445E-2,-4.0773723E-2,-7.831618E-2,-1.0972197E-2,5.1246136E-2,-4.694851E-3,-5.1421065E-2,-4.961722E-3,3.73397E-2,-2.9195258E-2,1.54955555E-2,2.0583612E-3,5.483188E-2,-4.269219E-2,-1.4614894E-2,2.0834854E-2,4.9831655E-2,5.3225357E-2,2.6868442E-2,6.967309E-2,5.063611E-2,1.793609E-2,-2.4283888E-2],"split_indices":[1,1,1,1,5,8,1,8,8,0,1,8,8,8,8,0,0,0,8,9,8,8,0,0,9,8,8,8,4,0,0,8,8,8,0,6,0,1,6,8,8,0,8,8,8,0,1,0,0,0,0,0,0,0,0,0,0,0,0,0,0,0,0,0,0,0,0,0,0,0,0,0,0,0,0],"split_type":[0,0,0,0,0,0,0,0,0,0,0,0,0,0,0,0,0,0,0,0,0,0,0,0,0,0,0,0,0,0,0,0,0,0,0,0,0,0,0,0,0,0,0,0,0,0,0,0,0,0,0,0,0,0,0,0,0,0,0,0,0,0,0,0,0,0,0,0,0,0,0,0,0,0,0],"sum_hessian":[1.2724899E3,3.9091956E2,8.815703E2,2.6216095E2,1.2875862E2,4.1651047E2,4.6505984E2,1.5591408E1,2.4656952E2,1.8192274E1,1.10566345E2,7.532146E1,3.4118903E2,1.2792073E2,3.371391E2,1.0718441E1,4.8729677E0,1.8187796E2,6.4691574E1,2.9276976E1,8.128937E1,6.502772E1,1.0293738E1,1.7416777E1,3.2377225E2,1.797473E1,1.09946E2,3.152257E2,2.1913414E1,1.0790707E1,5.3900864E1,1.6543327E1,1.2733649E1,6.666787E1,1.4621499E1,5.832405E1,6.70367E0,1.6337859E2,1.6039366E2,9.817647E0,8.157083E0,1.2021386E1,9.7924614E1,1.7914273E2,1.3608298E2,5.815564E0,1.609785E1,7.4842024E0,3.3065047E0,1.0626748E1,5.9165792E0,5.592031E0,7.1416183E0,4.5574932E1,2.1092936E1,8.439201E0,6.182298E0,3.179032E1,2.6533731E1,5.755097E1,1.05827614E2,6.56118E1,9.478185E1,5.1656985E0,4.6519485E0,4.7214828E0,3.4356E0,7.118108E1,2.6743532E1,1.3877238E2,4.0370342E1,5.2346287E1,8.373669E1,1.0408378E1,5.689473E0],"tree_param":{"num_deleted":"0","num_feature":"10","num_nodes":"75","size_leaf_vector":"1"}},{"base_weights":[-1.8632788E-2,-2.5731465E-1,6.9576913E-1,-3.8041383E-1,5.487126E-1,-2.5133154E-1,7.772979E-1,-1.1246204E0,-2.77864E-1,8.598653E-1,-2.504881E-2,4.7534153E-2,-7.9743683E-1,6.673569E-1,1.0773485E0,-7.267917E-2,-5.146846E-1,-1.2981299E-1,-7.3826534E-1,9.6723706E-1,-6.757452E-2,-5.9244764E-1,6.29789E-1,-8.046031E-2,4.2746815E-1,9.411395E-1,4.722964E-1,5.647599E-1,6.167257E-2,-7.675775E-2,-1.7229052E-1,-3.6827993E-1,2.9859757E-1,-8.765994E-1,9.131493E-1,1.0781717E0,4.9999127E-1,3.3485925E-1,-8.442278E-2,8.989312E-1,-1.669958E-2,4.9268432E-2,-6.911182E-3,1.1184293E0,6.6094273E-1,1.0960631E0,3.0708233E-1,-5.211096E-1,1.1245148E0,-6.588291E-2,6.910597E-3,-1.3492511E-3,-2.8425505E-2,3.600259E-2,-1.0378613E-2,-1.4471861E-2,-5.209356E-2,1.1247122E-2,5.7596155E-2,2.3775171E-2,5.8713146E-2,-2.3972793E-2,4.998584E-2,-7.429813E-2,5.312529E-2,7.196279E-2,2.7897779E-2,6.537999E-2,3.7194192E-2,-1.9003533E-2,4.319005E-2,1.5765602E-2,6.006943E-2,-8.352464E-2,2.0352053E-2,-8.226541E-2,3.4585245E-2,1.9542389E-2,6.695251E-2],"categories":[],"categories_nodes":[],"categories_segments":[],"categories_sizes":[],"default_left":[0,0,0,0,0,0,0,0,0,0,0,0,0,0,0,0,0,0,0,0,0,0,0,0,0,0,0,0,0,0,0,0,0,0,0,0,0,0,0,0,0,0,0,0,0,0,0,0,0,0,0,0,0,0,0,0,0,0,0,0,0,0,0,0,0,0,0,0,0,0,0,0,0,0,0,0,0,0,0],"id":9,"left_children":[1,3,5,7,9,11,13,15,17,19,21,-1,23,25,27,-1,29,31,33,35,-1,37,39,-1,41,43,45,47,-1,-1,49,51,53,55,57,59,61,63,-1,65,-1,-1,-1,67,69,71,73,75,77,-1,-1,-1,-1,-1,-1,-1,-1,-1,-1,-1,-1,-1,-1,-1,-1,-1,-1,-1,-1,-1,-1,-1,-1,-1,-1,-1,-1,-1,-1],"loss_changes":[2.1598698E2,9.442253E1,2.4739426E1,6.247734E1,2.2622139E1,1.7677364E1,8.751648E0,1.9002724E1,4.931435E1,2.0719543E1,1.716636E1,0E0,1.9042202E1,1.0994919E1,5.2474213E0,0E0,1.2313631E1,5.6392097E1,4.1075134E1,3.3851395E0,0E0,2.5924004E1,5.905039E0,0E0,2.7617698E0,3.5039902E0,1.2801924E1,1.2717782E1,0E0,0E0,1.044309E1,2.4148487E1,4.2306644E1,1.5407532E1,1.9138851E0,2.902153E0,8.924421E0,2.0388214E1,0E0,2.1425886E0,0E0,0E0,0E0,2.5664597E0,8.222645E0,1.6458836E0,2.099051E1,1.1292875E1,1.4257183E0,0E0,0E0,0E0,0E0,0E0,0E0,0E0,0E0,0E0,0E0,0E0,0E0,0E0,0E0,0E0,0E0,0E0,0E0,0E0,0E0,0E0,0E0,0E0,0E0,0E0,0E0,0E0,0E0,0E0,0E0],"parents":[2147483647,0,0,1,1,2,2,3,3,4,4,5,5,6,6,7,7,8,8,9,9,10,10,12,12,13,13,14,14,16,16,17,17,18,18,19,19,21,21,22,22,24,24,25,25,26,26,27,27,30,30,31,31,32,32,33,33,34,34,35,35,36,36,37,37,39,39,43,43,44,44,45,45,46,46,47,47,48,48],"right_children":[2,4,6,8,10,12,14,16,18,20,22,-1,24,26,28,-1,30,32,34,36,-1,38,40,-1,42,44,46,48,-1,-1,50,52,54,56,58,60,62,64,-1,66,-1,-1,-1,68,70,72,74,76,78,-1,-1,-1,-1,-1,-1,-1,-1,-1,-1,-1,-1,-1,-1,-1,-1,-1,-1,-1,-1,-1,-1,-1,-1,-1,-1,-1,-1,-1,-1],"split_conditions":[1.6214E2,1E0,2.58E1,2.12E1,8.922E1,1E0,1E0,2E0,3.21E1,3.93E1,1.1216E2,4.7534153E-2,1E0,2.0138E2,2.0267E2,-7.267917E-2,2E0,2.93E1,1E0,3.04E1,-6.757452E-2,2E0,1.3141E2,-8.046031E-2,1.7625E2,1E0,2.75E1,1E0,6.167257E-2,-7.675775E-2,7.398E1,2E0,3E1,7.12E1,8.905E1,2.48E1,3.36E1,1E0,-8.442278E-2,1.1237E2,-1.669958E-2,4.9268432E-2,-6.911182E-3,3.15E1,2.87E1,2E0,2.95E1,1E0,3.05E1,-6.588291E-2,6.910597E-3,-1.3492511E-3,-2.8425505E-2,3.600259E-2,-1.0378613E-2,-1.4471861E-2,-5.209356E-2,1.1247122E-2,5.7596155E-2,2.3775171E-2,5.8713146E-2,-2.3972793E-2,4.998584E-2,-7.429813E-2,5.312529E-2,7.196279E-2,2.7897779E-2,6.537999E-2,3.7194192E-2,-1.9003533E-2,4.319005E-2,1.5765602E-2,6.006943E-2,-8.352464E-2,2.0352053E-2,-8.226541E-2,3.4585245E-2,1.9542389E-2,6.695251E-2],"split_indices":[7,2,8,8,7,9,3,5,8,8,7,0,2,7,7,0,9,8,3,8,0,9,7,0,7,0,8,0,0,0,7,9,8,7,7,8,8,9,0,7,0,0,0,8,8,9,8,2,8,0,0,0,0,0,0,0,0,0,0,0,0,0,0,0,0,0,0,0,0,0,0,0,0,0,0,0,0,0,0],"split_type":[0,0,0,0,0,0,0,0,0,0,0,0,0,0,0,0,0,0,0,0,0,0,0,0,0,0,0,0,0,0,0,0,0,0,0,0,0,0,0,0,0,0,0,0,0,0,0,0,0,0,0,0,0,0,0,0,0,0,0,0,0,0,0,0,0,0,0,0,0,0,0,0,0,0,0,0,0,0,0],"sum_hessian":[1.2648832E3,9.4870154E2,3.161816E2,8.235746E2,1.2512696E2,2.4798136E1,2.9138348E2,9.841713E1,7.251575E2,8.091963E1,4.4207336E1,7.458193E0,1.7339943E1,2.1585126E2,7.5532234E1,6.292956E1,3.5487568E1,5.498436E2,1.7531381E2,7.775222E1,3.1674113E0,2.3817831E1,2.0389503E1,1.0289068E1,7.050874E0,8.799954E1,1.27851715E2,1.8860209E1,5.6672024E1,7.967024E0,2.7520546E1,3.5346664E2,1.9637701E2,1.6225217E2,1.3061637E1,6.1604412E1,1.6147804E1,1.3228629E1,1.0589202E1,1.6072262E1,4.317242E0,3.2653704E0,3.7855039E0,5.1846233E1,3.615331E1,2.5465826E1,1.0238589E2,6.3779674E0,1.2482242E1,5.246376E0,2.227417E1,1.3129935E2,2.2216728E2,1.0703284E2,8.934418E1,3.6375854E1,1.2587632E2,3.9725661E0,9.08907E0,9.432763E0,5.217165E1,5.4014926E0,1.0746312E1,3.440282E0,9.788347E0,4.8586965E0,1.1213566E1,3.261521E1,1.9231018E1,5.673242E0,3.0480066E1,3.6146274E0,2.1851198E1,4.1221128E0,9.826377E1,3.167632E0,3.2103355E0,3.5680842E0,8.914157E0],"tree_param":{"num_deleted":"0","num_feature":"10","num_nodes":"79","size_leaf_vector":"1"}},{"base_weights":[2.7655537E-4,-9.646375E-1,6.174847E-1,-1.249473E0,-3.2849896E-1,3.355799E-1,9.7830963E-1,-1.3754619E0,-8.7844455E-1,-1.2699872E0,-1.2816358E-1,7.012156E-2,7.9199463E-1,1.0268195E0,3.0394036E-1,-4.713961E-1,-1.4072462E0,-3.339854E-1,-1.1989634E0,4.840383E-3,-7.931468E-2,2.995036E-1,-6.7216206E-1,-8.6075234E-1,1.6873103E-1,1.1035756E0,6.525975E-1,3.2014746E-4,1.0408924E0,-3.6304733E-1,8.988079E-1,-6.347353E-2,4.5018423E-2,-6.1008507E-1,-7.238603E-2,3.381261E-1,-1.0673815E0,-7.830241E-2,-2.4654396E-1,-1.6098739E-1,7.575819E-1,-1.4630002E0,2.6460654E-1,-1.8269806E-1,-7.9265885E-2,-3.600079E-1,2.6634133E-1,7.465134E-1,6.563169E-2,-2.1323217E-1,8.101228E-1,1.0702975E0,6.7889535E-1,5.519339E-2,-8.268099E-2,5.7542045E-2,2.380618E-2,-6.506523E-2,3.7323665E-2,3.8366955E-2,-6.48408E-2,-2.105557E-2,-7.150672E-2,-6.901303E-2,1.8196007E-2,-4.637438E-2,2.73801E-2,6.257113E-2,-4.341051E-2,-7.944414E-2,-3.515562E-2,8.902791E-2,-1.3192174E-2,1.3602112E-2,-6.9962375E-2,2.259435E-3,-8.368339E-2,2.5826735E-2,-5.3416163E-4,6.0628098E-2,-2.048163E-2,1.4594982E-2,-9.2074715E-2,3.1749975E-2,5.6547582E-2,2.2459347E-2,5.568978E-2,1.29354E-2,5.15422E-2],"categories":[],"categories_nodes":[],"categories_segments":[],"categories_sizes":[],"default_left":[0,0,0,0,0,0,0,0,0,0,0,0,0,0,0,0,0,0,0,0,0,0,0,0,0,0,0,0,0,0,0,0,0,0,0,0,0,0,0,0,0,0,0,0,0,0,0,0,0,0,0,0,0,0,0,0,0,0,0,0,0,0,0,0,0,0,0,0,0,0,0,0,0,0,0,0,0,0,0,0,0,0,0,0,0,0,0,0,0],"id":10,"left_children":[1,3,5,7,9,11,13,15,17,19,21,23,25,27,29,31,33,35,37,-1,-1,39,41,43,45,47,49,-1,51,53,55,-1,-1,57,-1,59,61,-1,63,65,67,69,71,73,-1,75,77,79,-1,81,83,85,87,-1,-1,-1,-1,-1,-1,-1,-1,-1,-1,-1,-1,-1,-1,-1,-1,-1,-1,-1,-1,-1,-1,-1,-1,-1,-1,-1,-1,-1,-1,-1,-1,-1,-1,-1,-1],"loss_changes":[7.375274E2,8.696216E1,7.6375854E1,1.4142151E1,2.8153236E1,5.1440727E1,1.0371063E1,6.239807E0,1.4704124E1,1.1659866E1,2.9459013E1,2.489842E1,5.8939056E0,4.309906E0,9.80177E0,1.21185E1,6.5828857E0,1.7144001E1,1.8498314E1,0E0,0E0,1.5138688E1,4.176516E1,1.2291878E1,1.2754192E1,2.2965355E0,1.5327217E1,0E0,2.3301086E0,2.4272066E1,6.656084E-1,0E0,0E0,1.35329075E1,0E0,1.3838279E1,3.0861492E0,0E0,1.1977519E1,2.0139963E1,2.9892464E1,1.5624542E0,2.1676622E1,8.579424E0,0E0,2.0740305E1,1.446781E1,1.1203983E1,0E0,1.5275128E1,4.383438E0,6.8757324E0,3.4195604E0,0E0,0E0,0E0,0E0,0E0,0E0,0E0,0E0,0E0,0E0,0E0,0E0,0E0,0E0,0E0,0E0,0E0,0E0,0E0,0E0,0E0,0E0,0E0,0E0,0E0,0E0,0E0,0E0,0E0,0E0,0E0,0E0,0E0,0E0,0E0,0E0],"parents":[2147483647,0,0,1,1,2,2,3,3,4,4,5,5,6,6,7,7,8,8,9,9,10,10,11,11,12,12,13,13,14,14,15,15,16,16,17,17,18,18,21,21,22,22,23,23,24,24,25,25,26,26,28,28,29,29,30,30,33,33,35,35,36,36,38,38,39,39,40,40,41,41,42,42,43,43,45,45,46,46,47,47,49,49,50,50,51,51,52,52],"right_children":[2,4,6,8,10,12,14,16,18,20,22,24,26,28,30,32,34,36,38,-1,-1,40,42,44,46,48,50,-1,52,54,56,-1,-1,58,-1,60,62,-1,64,66,68,70,72,74,-1,76,78,80,-1,82,84,86,88,-1,-1,-1,-1,-1,-1,-1,-1,-1,-1,-1,-1,-1,-1,-1,-1,-1,-1,-1,-1,-1,-1,-1,-1,-1,-1,-1,-1,-1,-1,-1,-1,-1,-1,-1,-1],"split_conditions":[5.4E1,4.5E1,7.4E1,3.8E1,2.64E1,1.7912E2,3.42E1,5.802E1,4E1,2.08E1,3.2E1,6.741E1,1.9754E2,5.792E1,2.0267E2,5.792E1,1.4E0,2E0,3E0,4.840383E-3,-7.931468E-2,2.97E1,4.11E1,2E0,5.7E1,3.27E1,2.0535E2,3.2014746E-4,8.2E1,6.647E1,2.0805E2,-6.347353E-2,4.5018423E-2,2.44E1,-7.238603E-2,1.0153E2,2.64E1,-7.830241E-2,4.2E1,5.1E1,5.1E1,1.6214E2,4.18E1,6.248E1,-7.9265885E-2,3.13E1,2E0,2.84E1,6.563169E-2,6.4E1,1E0,1E0,1E0,5.519339E-2,-8.268099E-2,5.7542045E-2,2.380618E-2,-6.506523E-2,3.7323665E-2,3.8366955E-2,-6.48408E-2,-2.105557E-2,-7.150672E-2,-6.901303E-2,1.8196007E-2,-4.637438E-2,2.73801E-2,6.257113E-2,-4.341051E-2,-7.944414E-2,-3.515562E-2,8.902791E-2,-1.3192174E-2,1.3602112E-2,-6.9962375E-2,2.259435E-3,-8.368339E-2,2.5826735E-2,-5.3416163E-4,6.0628098E-2,-2.048163E-2,1.4594982E-2,-9.2074715E-2,3.1749975E-2,5.6547582E-2,2.2459347E-2,5.568978E-2,1.29354E-2,5.15422E-2],"split_indices":[1,1,1,1,8,7,8,7,1,8,8,7,7,7,7,7,1,9,9,0,0,8,8,9,1,8,7,0,1,7,7,0,0,8,0,7,8,0,1,1,1,7,8,7,0,8,9,8,0,1,3,5,3,0,0,0,0,0,0,0,0,0,0,0,0,0,0,0,0,0,0,0,0,0,0,0,0,0,0,0,0,0,0,0,0,0,0,0,0],"split_type":[0,0,0,0,0,0,0,0,0,0,0,0,0,0,0,0,0,0,0,0,0,0,0,0,0,0,0,0,0,0,0,0,0,0,0,0,0,0,0,0,0,0,0,0,0,0,0,0,0,0,0,0,0,0,0,0,0,0,0,0,0,0,0,0,0,0,0,0,0,0,0,0,0,0,0,0,0,0,0,0,0,0,0,0,0,0,0,0,0],"sum_hessian":[1.2364495E3,4.8207352E2,7.54376E2,3.3220508E2,1.4986847E2,4.2474164E2,3.296343E2,2.4577222E2,8.6432846E1,2.5270367E1,1.245981E2,2.69417E2,1.5532465E2,3.0688782E2,2.2746506E1,8.991684E0,2.3678053E2,3.2900097E1,5.353275E1,4.8200755E0,2.045029E1,6.9906425E1,5.4691673E1,2.4968763E1,2.4444823E2,4.5651062E1,1.0967359E2,4.291259E0,3.0259656E2,1.0827691E1,1.1918816E1,5.77774E0,3.2139432E0,1.23372135E1,2.2444333E2,1.7377403E1,1.5522693E1,3.8099155E1,1.5433594E1,3.5075966E1,3.4830456E1,2.9409014E1,2.528266E1,1.3616494E1,1.1352269E1,3.7516235E1,2.0693199E2,1.8722694E1,2.6928368E1,1.672993E1,9.294366E1,2.77798E2,2.4798555E1,5.099071E0,5.72862E0,6.2392645E0,5.679551E0,8.248651E0,4.088563E0,1.4232774E1,3.14463E0,6.456508E0,9.066185E0,5.0177474E0,1.0415847E1,1.6768852E1,1.8307114E1,2.6939312E1,7.8911457E0,2.4180708E1,5.228307E0,5.97168E0,1.931098E1,1.0416892E1,3.199602E0,2.9352098E1,8.164138E0,1.0846698E2,9.846501E1,1.3370624E1,5.3520713E0,1.3348249E1,3.381681E0,6.2253662E1,3.0689995E1,1.9073391E1,2.587246E2,1.2223849E1,1.2574705E1],"tree_param":{"num_deleted":"0","num_feature":"10","num_nodes":"89","size_leaf_vector":"1"}},{"base_weights":[-3.1918246E-2,-1.1456175E0,4.54231E-1,-1.3676794E0,-6.872143E-1,7.678129E-2,7.89268E-1,-5.0178456E-1,-1.4078685E0,-7.508313E-2,-5.307019E-1,-1.10671125E-1,5.394161E-1,6.852785E-1,9.331997E-1,-6.369979E-2,4.530894E-2,-6.550032E-1,-7.153922E-2,-7.357829E-2,-4.1203707E-1,-7.623675E-2,-6.2291272E-2,-6.159663E-1,6.1737186E-1,8.090598E-1,2.8419977E-1,-7.3377565E-3,9.637914E-1,-6.0854178E-2,9.633558E-3,-4.748996E-1,4.4871077E-2,8.950954E-3,-9.66176E-1,1.862805E-2,-6.929349E-2,9.3370295E-1,3.5671976E-1,7.233491E-2,6.847586E-1,5.223274E-1,-9.252316E-2,6.79869E-2,9.104618E-1,-1.0659851E-2,-5.673012E-2,-3.2116894E-3,5.3159367E-2,-8.558639E-2,3.7517093E-2,1.8100208E-2,5.447951E-2,-8.9730754E-2,2.777496E-2,2.617083E-2,5.385924E-2,-8.758258E-2,3.5287336E-2,7.983589E-3,4.6759415E-2],"categories":[],"categories_nodes":[],"categories_segments":[],"categories_sizes":[],"default_left":[0,0,0,0,0,0,0,0,0,0,0,0,0,0,0,0,0,0,0,0,0,0,0,0,0,0,0,0,0,0,0,0,0,0,0,0,0,0,0,0,0,0,0,0,0,0,0,0,0,0,0,0,0,0,0,0,0,0,0,0,0],"id":11,"left_children":[1,3,5,7,9,11,13,15,17,-1,19,21,23,25,27,-1,-1,29,-1,-1,31,-1,33,35,37,39,41,-1,43,-1,-1,45,-1,47,49,-1,-1,51,53,-1,55,57,-1,-1,59,-1,-1,-1,-1,-1,-1,-1,-1,-1,-1,-1,-1,-1,-1,-1,-1],"loss_changes":[6.6287115E2,3.672696E1,1.07618195E2,7.784363E0,1.4751568E1,3.496225E1,5.9519653E0,1.5031568E1,2.9559937E0,0E0,1.0961956E1,1.9362719E1,1.0849297E1,1.2872269E1,6.3710175E0,0E0,0E0,4.623244E0,0E0,0E0,8.203224E0,0E0,1.8029524E1,6.528267E0,8.563606E0,1.4855957E1,3.3616257E1,0E0,2.3608093E0,0E0,0E0,1.5397446E1,0E0,2.0144499E1,2.7549946E1,0E0,0E0,3.7969742E0,2.7303888E1,0E0,1.0140785E1,2.5673887E1,0E0,0E0,2.7658386E0,0E0,0E0,0E0,0E0,0E0,0E0,0E0,0E0,0E0,0E0,0E0,0E0,0E0,0E0,0E0,0E0],"parents":[2147483647,0,0,1,1,2,2,3,3,4,4,5,5,6,6,7,7,8,8,10,10,11,11,12,12,13,13,14,14,17,17,20,20,22,22,23,23,24,24,25,25,26,26,28,28,31,31,33,33,34,34,37,37,38,38,40,40,41,41,44,44],"right_children":[2,4,6,8,10,12,14,16,18,-1,20,22,24,26,28,-1,-1,30,-1,-1,32,-1,34,36,38,40,42,-1,44,-1,-1,46,-1,48,50,-1,-1,52,54,-1,56,58,-1,-1,60,-1,-1,-1,-1,-1,-1,-1,-1,-1,-1,-1,-1,-1,-1,-1,-1],"split_conditions":[4.8E1,3.8E1,6.8E1,1.4E0,1E0,1.6214E2,1.2729E2,2.46E1,5.802E1,-7.508313E-2,2.4E1,5.974E1,2.73E1,2.98E1,2.22E1,-6.369979E-2,4.530894E-2,3E1,-7.153922E-2,-7.357829E-2,2.241E2,-7.623675E-2,1.2139E2,2.36E1,3.15E1,1E0,3E0,-7.3377565E-3,1.4601E2,-6.0854178E-2,9.633558E-3,1.0153E2,4.4871077E-2,1.1644E2,6.3E1,1.862805E-2,-6.929349E-2,2E0,3.44E1,7.233491E-2,2.95E1,3.08E1,-9.252316E-2,6.79869E-2,1.6317E2,-1.0659851E-2,-5.673012E-2,-3.2116894E-3,5.3159367E-2,-8.558639E-2,3.7517093E-2,1.8100208E-2,5.447951E-2,-8.9730754E-2,2.777496E-2,2.617083E-2,5.385924E-2,-8.758258E-2,3.5287336E-2,7.983589E-3,4.6759415E-2],"split_indices":[1,1,1,1,5,7,7,8,7,0,8,7,8,8,8,0,0,8,0,0,7,0,7,8,8,4,9,0,7,0,0,7,0,7,1,0,0,9,8,0,8,8,0,0,7,0,0,0,0,0,0,0,0,0,0,0,0,0,0,0,0],"split_type":[0,0,0,0,0,0,0,0,0,0,0,0,0,0,0,0,0,0,0,0,0,0,0,0,0,0,0,0,0,0,0,0,0,0,0,0,0,0,0,0,0,0,0,0,0,0,0,0,0,0,0,0,0,0,0,0,0,0,0,0,0],"sum_hessian":[1.2222217E3,3.7104932E2,8.5117236E2,2.4847845E2,1.2257086E2,4.009704E2,4.50202E2,1.1729714E1,2.3674875E2,1.8269234E1,1.0430163E2,2.857383E2,1.1523208E2,2.6511462E2,1.8508737E2,7.682401E0,4.047313E0,7.996128E0,2.2875262E2,1.0310276E1,9.3991356E1,8.374764E0,2.7736356E2,6.766186E0,1.0846589E2,2.0162302E2,6.349162E1,4.903864E0,1.8018352E2,4.6169047E0,3.3792233E0,9.036686E1,3.6244955E0,2.5791473E2,1.9448814E1,3.1315718E0,3.6346145E0,4.765964E1,6.080625E1,3.1025536E1,1.7059747E2,5.7841404E1,5.6502137E0,1.8257608E1,1.619259E2,6.575626E1,2.4610598E1,2.4196202E2,1.5952709E1,1.3601982E1,5.8468323E0,1.1060437E1,3.6599205E1,4.4215703E0,5.638468E1,1.2272781E2,4.7869663E1,3.638399E0,5.4203007E1,5.5295544E0,1.5639635E2],"tree_param":{"num_deleted":"0","num_feature":"10","num_nodes":"61","size_leaf_vector":"1"}},{"base_weights":[1.2154952E-2,-1.0340716E0,4.73207E-1,-1.3080795E0,-5.561812E-1,1.3329019E-1,7.630204E-1,-4.594076E-1,-1.350528E0,-6.1744505E-1,5.0082296E-2,-2.4525787E-1,3.9195073E-1,5.381924E-1,9.030588E-1,-6.228848E-2,4.5520987E-2,-4.4520003E-1,-6.919949E-2,-3.3752072E-1,-1.2636665E0,-1.4023316E-1,-8.045556E-2,6.6782093E-1,3.6371674E-2,-4.0857933E-2,5.830877E-1,9.355885E-1,3.9000708E-1,-5.9530813E-2,2.8356126E-2,3.7466696E-1,-5.745131E-1,-7.479771E-2,9.16456E-3,-8.337997E-1,2.90563E-2,7.788908E-1,-2.049794E-1,4.376285E-1,-8.70444E-1,4.571627E-1,9.9192345E-1,2.501019E-3,9.5042187E-1,-3.635995E-2,6.085309E-2,5.0672412E-2,-2.7779484E-2,-5.665344E-2,-6.5445974E-3,-6.2357705E-2,3.7074514E-2,-3.5140805E-2,1.0392374E-2,1.6705632E-3,4.4622168E-2,-3.9314367E-2,1.9745953E-2,-1.3647698E-2,4.4680815E-2,-6.847102E-2,3.352966E-2,2.6711492E-2,-4.324846E-2,5.534634E-2,-1.4259944E-2,4.1712623E-2,5.294941E-2,2.6903307E-2,-2.955285E-2],"categories":[],"categories_nodes":[],"categories_segments":[],"categories_sizes":[],"default_left":[0,0,0,0,0,0,0,0,0,0,0,0,0,0,0,0,0,0,0,0,0,0,0,0,0,0,0,0,0,0,0,0,0,0,0,0,0,0,0,0,0,0,0,0,0,0,0,0,0,0,0,0,0,0,0,0,0,0,0,0,0,0,0,0,0,0,0,0,0,0,0],"id":12,"left_children":[1,3,5,7,9,11,13,15,17,19,-1,21,23,25,27,-1,-1,29,-1,31,33,35,-1,37,39,-1,41,43,45,-1,-1,47,49,-1,-1,51,53,55,57,59,61,63,65,-1,67,69,-1,-1,-1,-1,-1,-1,-1,-1,-1,-1,-1,-1,-1,-1,-1,-1,-1,-1,-1,-1,-1,-1,-1,-1,-1],"loss_changes":[5.9008026E2,4.8081024E1,8.3469955E1,7.734192E0,1.3772099E1,3.851413E1,1.3790955E1,1.50786705E1,6.0177307E0,2.3594398E1,0E0,2.2469797E1,2.281432E1,1.1317463E1,4.1837463E0,0E0,0E0,7.9827714E0,0E0,1.6226614E1,1.3826553E1,1.764793E1,0E0,1.2945072E1,3.790571E1,0E0,8.332699E0,3.3054352E0,6.728981E0,0E0,0E0,1.4963079E1,1.7464165E1,0E0,0E0,2.0160963E1,1.5923163E1,9.763443E0,5.7591147E0,2.3738047E1,2.5540163E1,1.4150835E1,6.244667E0,0E0,2.1858215E0,4.5224924E0,0E0,0E0,0E0,0E0,0E0,0E0,0E0,0E0,0E0,0E0,0E0,0E0,0E0,0E0,0E0,0E0,0E0,0E0,0E0,0E0,0E0,0E0,0E0,0E0,0E0],"parents":[2147483647,0,0,1,1,2,2,3,3,4,4,5,5,6,6,7,7,8,8,9,9,11,11,12,12,13,13,14,14,17,17,19,19,20,20,21,21,23,23,24,24,26,26,27,27,28,28,31,31,32,32,35,35,36,36,37,37,38,38,39,39,40,40,41,41,42,42,44,44,45,45],"right_children":[2,4,6,8,10,12,14,16,18,20,-1,22,24,26,28,-1,-1,30,-1,32,34,36,-1,38,40,-1,42,44,46,-1,-1,48,50,-1,-1,52,54,56,58,60,62,64,66,-1,68,70,-1,-1,-1,-1,-1,-1,-1,-1,-1,-1,-1,-1,-1,-1,-1,-1,-1,-1,-1,-1,-1,-1,-1,-1,-1],"split_conditions":[4.9E1,3.8E1,6.8E1,1.4E0,2.241E2,9.616E1,7.6E1,2.31E1,5.802E1,1.0153E2,5.0082296E-2,9.305E1,2E0,2.24E1,3.42E1,-6.228848E-2,4.5520987E-2,5.792E1,-6.919949E-2,4E1,4.57E1,2.73E1,-8.045556E-2,2.1333E2,3.11E1,-4.0857933E-2,2.1938E2,5.792E1,4.38E1,-5.9530813E-2,2.8356126E-2,2E0,4.5E1,-7.479771E-2,9.16456E-3,6.6E1,5.3E1,2.73E1,3.65E1,1.6214E2,2.315E2,3.72E1,3E0,2.501019E-3,1.0325E2,7.8E1,6.085309E-2,5.0672412E-2,-2.7779484E-2,-5.665344E-2,-6.5445974E-3,-6.2357705E-2,3.7074514E-2,-3.5140805E-2,1.0392374E-2,1.6705632E-3,4.4622168E-2,-3.9314367E-2,1.9745953E-2,-1.3647698E-2,4.4680815E-2,-6.847102E-2,3.352966E-2,2.6711492E-2,-4.324846E-2,5.534634E-2,-1.4259944E-2,4.1712623E-2,5.294941E-2,2.6903307E-2,-2.955285E-2],"split_indices":[1,1,1,1,7,7,1,8,7,7,0,7,9,8,8,0,0,7,0,1,8,8,0,7,8,0,7,7,8,0,0,9,1,0,0,1,1,8,8,7,7,8,9,0,7,1,0,0,0,0,0,0,0,0,0,0,0,0,0,0,0,0,0,0,0,0,0,0,0,0,0],"split_type":[0,0,0,0,0,0,0,0,0,0,0,0,0,0,0,0,0,0,0,0,0,0,0,0,0,0,0,0,0,0,0,0,0,0,0,0,0,0,0,0,0,0,0,0,0,0,0,0,0,0,0,0,0,0,0,0,0,0,0,0,0,0,0,0,0,0,0,0,0,0,0],"sum_hessian":[1.2214087E3,3.731626E2,8.4824615E2,2.3593697E2,1.3722563E2,3.9120914E2,4.5703702E2,1.1914238E1,2.2402274E2,1.326758E2,4.5498343E0,1.5866667E2,2.3254245E2,1.7754712E2,2.794899E2,7.67303E0,4.2412076E0,8.601353E0,2.1542139E2,9.374516E1,3.8930634E1,1.4841406E2,1.0252612E1,1.3029549E2,1.0224697E2,5.069656E0,1.7247746E2,2.618679E2,1.7622011E1,4.9091763E0,3.692176E0,2.3156E1,7.058916E1,3.357579E1,5.3548455E0,2.8464106E1,1.1994996E2,1.1578341E2,1.451207E1,7.1317406E1,3.0929562E1,1.3366904E2,3.8808426E1,4.4971514E0,2.5737073E2,1.2178712E1,5.4433E0,1.3739523E1,9.416478E0,3.0459093E1,4.0130066E1,2.2762922E1,5.701184E0,2.2864613E1,9.708534E1,1.5592513E1,1.001909E2,7.2970986E0,7.214971E0,2.794765E1,4.3369755E1,2.3497501E1,7.4320607E0,1.269412E2,6.727838E0,3.5796555E1,3.0118716E0,1.2897198E2,1.2839874E2,5.909122E0,6.2695894E0],"tree_param":{"num_deleted":"0","num_feature":"10","num_nodes":"71","size_leaf_vector":"1"}},{"base_weights":[1.3609077E-2,-1.056165E0,4.526559E-1,-1.288107E0,-6.137184E-1,1.1247413E-1,7.6180094E-1,-5.621665E-1,-1.3260813E0,-7.1493566E-2,-4.6583137E-1,-4.9477807E-1,2.4976876E-1,5.323688E-1,9.0259993E-1,-6.405794E-2,3.313441E-2,-4.2666695E-1,-6.769166E-2,-6.449441E-1,1.9716386E-1,4.2691627E-1,-7.250517E-1,-2.3171352E-1,4.1671E-1,-1.3840543E-1,5.8324784E-1,9.555496E-1,4.0188712E-1,-5.558719E-2,1.9721529E-2,-3.358656E-1,-7.209691E-2,-2.4931201E-1,5.6571063E-2,-6.4715825E-2,1.1332135E0,-1.4274905E0,-2.2275661E-1,3.660777E-1,-9.124793E-1,6.891328E-2,3.3988276E-1,6.6643816E-1,-7.88426E-2,9.837944E-1,4.3672904E-1,8.718434E-1,1.1419371E0,3.252322E-2,9.1495216E-1,-4.030415E-2,2.5345126E-2,3.572956E-2,-6.899714E-2,6.595502E-2,2.8716674E-2,-1.6011331E-2,-7.941266E-2,4.381426E-2,-3.8864158E-2,3.023351E-3,5.428466E-2,-2.8347774E-4,-8.467158E-2,-4.498956E-4,2.7835328E-2,1.6090168E-2,4.7475856E-2,1.3709105E-2,6.2948965E-2,-4.7505773E-3,3.591634E-2,3.4215495E-2,5.2589078E-2,3.1802643E-2,5.8542497E-2,-2.4689527E-2,1.4294929E-2,5.7573736E-2,9.083493E-3],"categories":[],"categories_nodes":[],"categories_segments":[],"categories_sizes":[],"default_left":[0,0,0,0,0,0,0,0,0,0,0,0,0,0,0,0,0,0,0,0,0,0,0,0,0,0,0,0,0,0,0,0,0,0,0,0,0,0,0,0,0,0,0,0,0,0,0,0,0,0,0,0,0,0,0,0,0,0,0,0,0,0,0,0,0,0,0,0,0,0,0,0,0,0,0,0,0,0,0,0,0],"id":13,"left_children":[1,3,5,7,9,11,13,15,17,-1,19,21,23,25,27,-1,-1,29,-1,31,33,35,37,39,41,43,45,47,49,-1,-1,51,-1,53,-1,-1,55,57,59,61,63,-1,65,67,-1,69,71,73,75,77,79,-1,-1,-1,-1,-1,-1,-1,-1,-1,-1,-1,-1,-1,-1,-1,-1,-1,-1,-1,-1,-1,-1,-1,-1,-1,-1,-1,-1,-1,-1],"loss_changes":[5.6891156E2,3.5187317E1,9.015816E1,5.4107056E0,1.4023151E1,3.43044E1,1.390213E1,1.2631049E1,4.68219E0,0E0,1.2753479E1,1.6439014E1,2.7075537E1,6.0539436E0,6.8230133E0,0E0,0E0,5.0604076E0,0E0,1.9972557E1,1.004005E1,2.0544134E1,2.1092472E1,3.5730194E1,1.779655E1,1.6096714E1,8.924023E0,2.6966248E0,5.2562065E0,0E0,0E0,2.4910425E1,0E0,1.8961468E1,0E0,0E0,2.6963806E-1,3.7912064E0,2.3173306E1,1.0128634E1,2.8833294E1,0E0,1.7649712E1,4.3960977E-1,0E0,7.7720795E0,1.8166046E1,5.0732117E0,1.532135E-1,2.4752455E0,1.6927032E0,0E0,0E0,0E0,0E0,0E0,0E0,0E0,0E0,0E0,0E0,0E0,0E0,0E0,0E0,0E0,0E0,0E0,0E0,0E0,0E0,0E0,0E0,0E0,0E0,0E0,0E0,0E0,0E0,0E0,0E0],"parents":[2147483647,0,0,1,1,2,2,3,3,4,4,5,5,6,6,7,7,8,8,10,10,11,11,12,12,13,13,14,14,17,17,19,19,20,20,21,21,22,22,23,23,24,24,25,25,26,26,27,27,28,28,31,31,33,33,36,36,37,37,38,38,39,39,40,40,42,42,43,43,45,45,46,46,47,47,48,48,49,49,50,50],"right_children":[2,4,6,8,10,12,14,16,18,-1,20,22,24,26,28,-1,-1,30,-1,32,34,36,38,40,42,44,46,48,50,-1,-1,52,-1,54,-1,-1,56,58,60,62,64,-1,66,68,-1,70,72,74,76,78,80,-1,-1,-1,-1,-1,-1,-1,-1,-1,-1,-1,-1,-1,-1,-1,-1,-1,-1,-1,-1,-1,-1,-1,-1,-1,-1,-1,-1,-1,-1],"split_conditions":[4.8E1,3.8E1,6.8E1,1.4E0,1E0,2.73E1,7.6E1,1.32E0,5.802E1,-7.1493566E-2,3.91E1,2.13E1,8.42E1,6.982E1,3.33E1,-6.405794E-2,3.313441E-2,2.95E1,-6.769166E-2,3.09E1,1.4184E2,2.02E1,9.298E1,3.04E1,2.76E1,6.257E1,8.301E1,1E0,1E0,-5.558719E-2,1.9721529E-2,2.94E1,-7.209691E-2,4.15E1,5.6571063E-2,-6.4715825E-2,7.666E1,6.248E1,9.75E1,1E0,6.84E1,6.891328E-2,5.7E1,3.15E1,-7.88426E-2,1E0,1.2729E2,1.0325E2,6.494E1,1E0,2.0535E2,-4.030415E-2,2.5345126E-2,3.572956E-2,-6.899714E-2,6.595502E-2,2.8716674E-2,-1.6011331E-2,-7.941266E-2,4.381426E-2,-3.8864158E-2,3.023351E-3,5.428466E-2,-2.8347774E-4,-8.467158E-2,-4.498956E-4,2.7835328E-2,1.6090168E-2,4.7475856E-2,1.3709105E-2,6.2948965E-2,-4.7505773E-3,3.591634E-2,3.4215495E-2,5.2589078E-2,3.1802643E-2,5.8542497E-2,-2.4689527E-2,1.4294929E-2,5.7573736E-2,9.083493E-3],"split_indices":[1,1,1,1,5,8,1,1,7,0,8,8,7,7,8,0,0,8,0,8,7,8,7,8,8,7,7,2,2,0,0,8,0,8,0,0,7,7,7,2,7,0,1,8,0,6,7,7,7,6,7,0,0,0,0,0,0,0,0,0,0,0,0,0,0,0,0,0,0,0,0,0,0,0,0,0,0,0,0,0,0],"split_type":[0,0,0,0,0,0,0,0,0,0,0,0,0,0,0,0,0,0,0,0,0,0,0,0,0,0,0,0,0,0,0,0,0,0,0,0,0,0,0,0,0,0,0,0,0,0,0,0,0,0,0,0,0,0,0,0,0,0,0,0,0,0,0,0,0,0,0,0,0,0,0,0,0,0,0,0,0,0,0,0,0],"sum_hessian":[1.2093832E3,3.5143918E2,8.57944E2,2.2916664E2,1.2227252E2,4.0927115E2,4.4867282E2,1.2308403E1,2.1685825E2,1.7323492E1,1.0494903E2,7.485526E1,3.344159E2,1.7271866E2,2.7595416E2,7.7782364E0,4.5301666E0,7.0889773E0,2.0976926E2,8.2767006E1,2.218202E1,1.4705749E1,6.0149517E1,8.584363E1,2.4857227E2,1.1917406E1,1.6080125E2,2.4856107E2,2.7393095E1,3.7380106E0,3.350967E0,6.0753403E1,2.2013605E1,1.5432858E1,6.7491612E0,3.9952588E0,1.071049E1,2.4227436E1,3.592208E1,4.587523E1,3.9968403E1,1.7041578E1,2.3153069E2,7.941264E0,3.9761417E0,4.135361E1,1.1944765E2,1.7581642E2,7.2744644E1,1.6658596E1,1.0734498E1,3.9099983E1,2.1653418E1,8.481554E0,6.951304E0,6.8822317E0,3.8282583E0,3.5297825E0,2.0697653E1,1.1791462E1,2.413062E1,3.3058662E1,1.28165655E1,1.901929E1,2.0949112E1,8.893193E1,1.4259875E2,4.7041936E0,3.2370706E0,1.2214952E1,2.9138657E1,4.1462173E1,7.798547E1,8.871521E1,8.710121E1,5.3631825E0,6.738146E1,4.9769354E0,1.1681661E1,7.58217E0,3.1523285E0],"tree_param":{"num_deleted":"0","num_feature":"10","num_nodes":"81","size_leaf_vector":"1"}},{"base_weights":[-1.8595131E-2,-1.0014693E0,4.0884802E-1,-1.2480016E0,-5.7521176E-1,8.277773E-2,7.011384E-1,-4.6584272E-1,-1.2909955E0,-2.7324793E-1,-8.6741966E-1,-1.2514862E-1,5.501917E-1,5.5578035E-1,8.162834E-1,-6.0811646E-2,4.472352E-2,-3.857706E-1,-1.3238907E0,-6.843167E-1,5.156833E-1,-1.0765125E0,4.4462243E-1,-1.036605E0,-4.9952924E-2,-4.6448302E-1,6.164085E-1,9.9658296E-2,6.4694697E-1,8.8602334E-1,4.343797E-1,-5.7440814E-2,3.3239037E-2,-1.0488263E0,-6.80071E-2,6.134394E-2,-9.7347665E-1,8.802488E-1,-2.0939521E-1,-5.6523466E-1,-7.3321424E-2,-0E0,4.9633067E-2,-7.659845E-2,3.125267E-2,-7.434132E-2,3.497455E-3,3.915536E-2,-7.1295284E-2,6.887042E-2,5.09306E-1,6.5400803E-1,-3.8813743E-1,1.1528006E0,5.556809E-1,-5.364188E-2,9.183045E-1,7.1181434E-1,-5.4333085E-1,-1.4731637E-2,-6.632315E-2,-2.747183E-2,6.675122E-2,-7.096652E-2,-7.1230493E-3,7.414652E-2,1.4556243E-2,-6.146245E-2,5.6945976E-2,8.7327445E-3,-6.961073E-2,4.007125E-3,-4.659342E-2,-4.7193777E-2,3.311785E-2,-9.1746785E-3,5.8836248E-2,-4.1028414E-2,3.771847E-2,6.631275E-2,1.4832432E-2,1.47693E-2,3.9719563E-2,-1.3411778E-2,8.47445E-3,4.7803946E-2,2.6689788E-2,5.4104995E-2,1.5932899E-2,-8.86963E-2,3.2865666E-2],"categories":[],"categories_nodes":[],"categories_segments":[],"categories_sizes":[],"default_left":[0,0,0,0,0,0,0,0,0,0,0,0,0,0,0,0,0,0,0,0,0,0,0,0,0,0,0,0,0,0,0,0,0,0,0,0,0,0,0,0,0,0,0,0,0,0,0,0,0,0,0,0,0,0,0,0,0,0,0,0,0,0,0,0,0,0,0,0,0,0,0,0,0,0,0,0,0,0,0,0,0,0,0,0,0,0,0,0,0,0,0],"id":14,"left_children":[1,3,5,7,9,11,13,15,17,19,21,23,25,27,29,-1,-1,31,33,35,37,39,41,43,45,47,49,51,53,55,57,-1,-1,59,-1,61,63,65,67,69,-1,-1,-1,-1,-1,-1,71,-1,-1,-1,73,75,77,79,81,83,85,87,89,-1,-1,-1,-1,-1,-1,-1,-1,-1,-1,-1,-1,-1,-1,-1,-1,-1,-1,-1,-1,-1,-1,-1,-1,-1,-1,-1,-1,-1,-1,-1,-1],"loss_changes":[5.0558563E2,3.743103E1,7.978325E1,6.960602E0,1.1619354E1,3.8759533E1,6.8049927E0,1.5078744E1,5.792633E0,2.2534773E1,1.9283913E1,1.8748898E1,8.550114E0,8.128998E0,5.983078E0,0E0,0E0,8.140289E0,4.1934204E-1,9.949945E0,6.568947E0,1.0786667E1,2.4487848E0,1.823098E1,1.981641E1,1.0775044E1,8.545593E0,9.605854E0,6.822212E0,6.3595734E0,1.121772E1,0E0,0E0,5.531969E0,0E0,1.1347919E1,1.1832748E1,5.138233E0,1.3389004E1,1.712328E1,0E0,0E0,0E0,0E0,0E0,0E0,1.775247E1,0E0,0E0,0E0,2.3547207E1,7.586864E0,9.951389E0,3.0342484E0,8.490326E0,4.219537E-1,2.2241364E0,4.1107664E0,1.5018054E1,0E0,0E0,0E0,0E0,0E0,0E0,0E0,0E0,0E0,0E0,0E0,0E0,0E0,0E0,0E0,0E0,0E0,0E0,0E0,0E0,0E0,0E0,0E0,0E0,0E0,0E0,0E0,0E0,0E0,0E0,0E0,0E0],"parents":[2147483647,0,0,1,1,2,2,3,3,4,4,5,5,6,6,7,7,8,8,9,9,10,10,11,11,12,12,13,13,14,14,17,17,18,18,19,19,20,20,21,21,22,22,23,23,24,24,25,25,26,26,27,27,28,28,29,29,30,30,33,33,35,35,36,36,37,37,38,38,39,39,46,46,50,50,51,51,52,52,53,53,54,54,55,55,56,56,57,57,58,58],"right_children":[2,4,6,8,10,12,14,16,18,20,22,24,26,28,30,-1,-1,32,34,36,38,40,42,44,46,48,50,52,54,56,58,-1,-1,60,-1,62,64,66,68,70,-1,-1,-1,-1,-1,-1,72,-1,-1,-1,74,76,78,80,82,84,86,88,90,-1,-1,-1,-1,-1,-1,-1,-1,-1,-1,-1,-1,-1,-1,-1,-1,-1,-1,-1,-1,-1,-1,-1,-1,-1,-1,-1,-1,-1,-1,-1,-1],"split_conditions":[4.9E1,3.8E1,6.8E1,1.4E0,8.72E1,1.6214E2,7.7E1,2.46E1,5.802E1,8.228E1,4.57E1,2.38E1,2.73E1,2.66E1,3E0,-6.0811646E-2,4.472352E-2,5.792E1,1E0,6.441E1,8.449E1,2E0,2.1938E2,6.6E1,5.974E1,2.04E1,1.7412E2,2.33E1,2.73E1,2.15E1,2.96E1,-5.7440814E-2,3.3239037E-2,7.634E1,-6.80071E-2,6.414E1,4.6E1,1E0,3.93E1,1.0153E2,-7.3321424E-2,-0E0,4.9633067E-2,-7.659845E-2,3.125267E-2,-7.434132E-2,1.2139E2,3.915536E-2,-7.1295284E-2,6.887042E-2,5.4E1,2.24E1,2.1938E2,1.9984E2,1.2729E2,1.0325E2,3.33E1,7.892E1,1.2729E2,-1.4731637E-2,-6.632315E-2,-2.747183E-2,6.675122E-2,-7.096652E-2,-7.1230493E-3,7.414652E-2,1.4556243E-2,-6.146245E-2,5.6945976E-2,8.7327445E-3,-6.961073E-2,4.007125E-3,-4.659342E-2,-4.7193777E-2,3.311785E-2,-9.1746785E-3,5.8836248E-2,-4.1028414E-2,3.771847E-2,6.631275E-2,1.4832432E-2,1.47693E-2,3.9719563E-2,-1.3411778E-2,8.47445E-3,4.7803946E-2,2.6689788E-2,5.4104995E-2,1.5932899E-2,-8.86963E-2,3.2865666E-2],"split_indices":[1,1,1,1,7,7,1,8,7,7,8,8,8,8,9,0,0,7,9,7,7,9,7,1,7,8,7,8,8,8,8,0,0,7,0,7,1,4,8,7,0,0,0,0,0,0,7,0,0,0,1,8,7,7,7,7,8,7,7,0,0,0,0,0,0,0,0,0,0,0,0,0,0,0,0,0,0,0,0,0,0,0,0,0,0,0,0,0,0,0,0],"split_type":[0,0,0,0,0,0,0,0,0,0,0,0,0,0,0,0,0,0,0,0,0,0,0,0,0,0,0,0,0,0,0,0,0,0,0,0,0,0,0,0,0,0,0,0,0,0,0,0,0,0,0,0,0,0,0,0,0,0,0,0,0,0,0,0,0,0,0,0,0,0,0,0,0,0,0,0,0,0,0,0,0,0,0,0,0,0,0,0,0,0,0],"sum_hessian":[1.2013077E3,3.637598E2,8.375479E2,2.2909624E2,1.3466357E2,3.9666537E2,4.4088254E2,1.2674721E1,2.1642151E2,6.7346214E1,6.731735E1,2.7489725E2,1.2176811E2,1.9783394E2,2.430486E2,8.284286E0,4.390435E0,8.141722E0,2.0827979E2,4.444679E1,2.2899427E1,5.8284595E1,9.032759E0,1.9874971E1,2.5502228E2,6.998696E0,1.1476942E2,3.34863E1,1.6434764E2,2.0418098E2,3.8867615E1,4.7171626E0,3.4245596E0,2.8059849E1,1.8021994E2,1.2543282E1,3.1903507E1,1.5187264E1,7.712162E0,2.6388603E1,3.189599E1,5.5348306E0,3.497928E0,1.5417134E1,4.457838E0,8.251671E0,2.4677061E2,3.081476E0,3.9172199E0,1.2581222E1,1.02188194E2,1.5610357E1,1.7875946E1,2.3174301E1,1.4117334E2,6.6565814E0,1.9752441E2,3.0567915E1,8.299698E0,8.201653E0,1.9858196E1,8.809085E0,3.734197E0,2.0224464E1,1.1679043E1,6.6733837E0,8.513881E0,4.483417E0,3.228745E0,1.4280174E1,1.210843E1,2.2902522E2,1.774538E1,9.182468E0,9.300572E1,6.174758E0,9.435599E0,1.3235653E1,4.640292E0,1.871649E1,4.45781E0,6.880417E1,7.236917E1,3.5186148E0,3.1379666E0,1.7826498E2,1.925943E1,1.4708422E1,1.5859493E1,3.904059E0,4.395639E0],"tree_param":{"num_deleted":"0","num_feature":"10","num_nodes":"91","size_leaf_vector":"1"}},{"base_weights":[-6.16055E-3,-1.0056297E0,3.8966358E-1,-1.2339602E0,-5.9656465E-1,8.55368E-2,6.6616356E-1,-2.733673E-1,-1.2694657E0,-6.5287954E-1,4.271526E-2,-2.3561844E-1,3.0463284E-1,5.409052E-1,8.4398466E-1,-5.500039E-2,3.5749078E-2,-5.645438E-1,-1.3013408E0,-4.5429996E-1,-1.1661489E0,-1.2992893E-1,-7.873144E-2,5.6342024E-1,-3.545072E-2,1.8078439E-1,6.548419E-1,1.2671213E0,7.817815E-1,2.6577165E-2,-6.2118907E-2,-1.0242332E0,-6.676357E-2,2.0118137E-1,-7.005657E-1,-6.9146834E-2,-5.125975E-1,-2.0655832E-1,7.46143E-2,1.9608083E-1,7.8275E-1,7.264315E-2,-1.6141379E-1,3.5307544E-1,-7.8120194E-2,6.989196E-1,6.5301536E-3,6.952632E-2,1.9271625E-2,6.9207543E-1,1.0416368E0,-1.3691559E-2,-6.451287E-2,4.164756E-2,-3.1214416E-2,-5.461809E-2,-1.2404125E-2,-6.0721308E-2,2.6154531E-2,-1.8535128E-2,2.7013144E-2,4.1051816E-2,-1.0633974E-2,-1.4600046E-2,4.4725057E-2,-4.3835957E-2,1.4742168E-2,-3.74403E-2,2.5709046E-2,4.5130935E-2,2.577727E-2,-3.3016443E-2,2.0312632E-2,4.409818E-2,2.499806E-2,3.9382063E-2,5.836251E-2],"categories":[],"categories_nodes":[],"categories_segments":[],"categories_sizes":[],"default_left":[0,0,0,0,0,0,0,0,0,0,0,0,0,0,0,0,0,0,0,0,0,0,0,0,0,0,0,0,0,0,0,0,0,0,0,0,0,0,0,0,0,0,0,0,0,0,0,0,0,0,0,0,0,0,0,0,0,0,0,0,0,0,0,0,0,0,0,0,0,0,0,0,0,0,0,0,0],"id":15,"left_children":[1,3,5,7,9,11,13,15,17,19,-1,21,23,25,27,-1,-1,29,31,33,35,37,-1,39,41,43,45,47,49,-1,-1,51,-1,53,55,-1,57,59,-1,61,63,-1,65,67,-1,69,71,-1,-1,73,75,-1,-1,-1,-1,-1,-1,-1,-1,-1,-1,-1,-1,-1,-1,-1,-1,-1,-1,-1,-1,-1,-1,-1,-1,-1,-1],"loss_changes":[4.6694977E2,3.0357819E1,7.095055E1,6.7911377E0,1.0509724E1,2.8495989E1,9.259811E0,8.174936E0,3.7033691E0,1.1347759E1,0E0,2.2857197E1,2.1256563E1,1.0576996E1,3.561676E0,0E0,0E0,8.759956E0,2.394104E-1,1.42264385E1,3.6599007E0,1.923785E1,0E0,1.0779526E1,1.9749897E1,1.9871819E1,5.6107254E0,1.6091843E0,2.8445969E0,0E0,0E0,4.679968E0,0E0,1.3271727E1,1.0858955E1,0E0,7.7679205E0,1.8244513E1,0E0,1.3695614E1,1.0557083E1,0E0,3.216045E1,1.0973077E1,0E0,6.3461685E0,3.9268103E0,0E0,0E0,3.8896255E0,1.26091E-1,0E0,0E0,0E0,0E0,0E0,0E0,0E0,0E0,0E0,0E0,0E0,0E0,0E0,0E0,0E0,0E0,0E0,0E0,0E0,0E0,0E0,0E0,0E0,0E0,0E0,0E0],"parents":[2147483647,0,0,1,1,2,2,3,3,4,4,5,5,6,6,7,7,8,8,9,9,11,11,12,12,13,13,14,14,17,17,18,18,19,19,20,20,21,21,23,23,24,24,25,25,26,26,27,27,28,28,31,31,33,33,34,34,36,36,37,37,39,39,40,40,42,42,43,43,45,45,46,46,49,49,50,50],"right_children":[2,4,6,8,10,12,14,16,18,20,-1,22,24,26,28,-1,-1,30,32,34,36,38,-1,40,42,44,46,48,50,-1,-1,52,-1,54,56,-1,58,60,-1,62,64,-1,66,68,-1,70,72,-1,-1,74,76,-1,-1,-1,-1,-1,-1,-1,-1,-1,-1,-1,-1,-1,-1,-1,-1,-1,-1,-1,-1,-1,-1,-1,-1,-1,-1],"split_conditions":[4.8E1,3.8E1,6.8E1,5.802E1,2.241E2,9.616E1,1.2729E2,5.792E1,1.4E0,1.0153E2,4.271526E-2,9.305E1,2E0,7.4E1,1.4601E2,-5.500039E-2,3.5749078E-2,7.094E1,1E0,4E1,3E0,9.262E1,-7.873144E-2,5.7E1,9.678E1,1.0325E2,8.2E1,3E0,2.315E2,2.6577165E-2,-6.2118907E-2,7.634E1,-6.676357E-2,2E0,4.5E1,-6.9146834E-2,1.4184E2,1E0,7.46143E-2,1.0529E2,1.0726E2,7.264315E-2,1.6214E2,7.094E1,-7.8120194E-2,7.892E1,8.267E1,6.952632E-2,1.9271625E-2,2.0138E2,1E0,-1.3691559E-2,-6.451287E-2,4.164756E-2,-3.1214416E-2,-5.461809E-2,-1.2404125E-2,-6.0721308E-2,2.6154531E-2,-1.8535128E-2,2.7013144E-2,4.1051816E-2,-1.0633974E-2,-1.4600046E-2,4.4725057E-2,-4.3835957E-2,1.4742168E-2,-3.74403E-2,2.5709046E-2,4.5130935E-2,2.577727E-2,-3.3016443E-2,2.0312632E-2,4.409818E-2,2.499806E-2,3.9382063E-2,5.836251E-2],"split_indices":[1,1,1,7,7,7,7,7,1,7,0,7,9,1,7,0,0,7,9,1,9,7,0,1,7,7,1,9,7,0,0,7,0,9,1,0,7,2,0,7,7,0,7,7,0,7,7,0,0,7,0,0,0,0,0,0,0,0,0,0,0,0,0,0,0,0,0,0,0,0,0,0,0,0,0,0,0],"split_type":[0,0,0,0,0,0,0,0,0,0,0,0,0,0,0,0,0,0,0,0,0,0,0,0,0,0,0,0,0,0,0,0,0,0,0,0,0,0,0,0,0,0,0,0,0,0,0,0,0,0,0,0,0,0,0,0,0,0,0,0,0,0,0,0,0,0,0,0,0,0,0,0,0,0,0,0,0],"sum_hessian":[1.1781704E3,3.3386423E2,8.443062E2,2.128149E2,1.2104933E2,4.0286243E2,4.414438E2,7.9961634E0,2.0481873E2,1.17122215E2,3.9271162E0,1.6316302E2,2.3969939E2,2.6170276E2,1.7974103E2,4.3478713E0,3.6482923E0,9.806011E0,1.9501273E2,8.594916E1,3.1173054E1,1.5231256E2,1.0850476E1,1.3591324E2,1.0378616E2,6.3731247E1,1.9797153E2,2.0347694E1,1.5939333E2,3.773077E0,6.032934E0,2.4997183E1,1.7001553E2,2.3411682E1,6.2537476E1,2.245539E1,8.717663E0,1.463344E2,5.9781585E0,5.1690517E1,8.422272E1,7.214576E0,9.657159E1,5.8776764E1,4.954484E0,1.8515108E2,1.2820444E1,1.7243658E1,3.104035E0,1.2149837E2,3.7894962E1,7.1719027E0,1.782528E1,1.3325299E1,1.0086384E1,3.2640003E1,2.9897474E1,5.1510534E0,3.5666096E0,1.2048948E2,2.584492E1,2.0137794E1,3.1552725E1,7.6963434E0,7.652637E1,3.733562E1,5.9235962E1,6.9530077E0,5.1823757E1,8.559798E1,9.95531E1,4.466619E0,8.353825E0,5.9035534E1,6.2462833E1,1.5208718E1,2.2686243E1],"tree_param":{"num_deleted":"0","num_feature":"10","num_nodes":"77","size_leaf_vector":"1"}},{"base_weights":[3.4412872E-3,-7.9432046E-1,4.7387505E-1,-1.2039182E0,-4.0283886E-1,2.789875E-1,7.342541E-1,-4.510673E-1,-1.2442628E0,-1.0235932E0,-2.8451678E-1,6.945617E-2,6.737931E-1,2.167771E-1,7.7821064E-1,-6.0647946E-2,3.7119243E-2,-5.146579E-1,-6.3501805E-2,-3.0524477E-1,-7.150302E-2,-0E0,-6.4981014E-1,1.3094716E-1,-9.4243276E-1,5.083872E-1,8.931881E-1,-3.939076E-2,5.3154536E-2,8.1736505E-1,1.6743673E-1,-5.5783242E-2,1.9369338E-2,-6.324098E-2,4.868228E-1,2.9267704E-1,-8.376477E-1,-1.1358505E0,6.284083E-2,4.023006E-2,1.1004076E0,-8.142399E-2,2.2220935E-3,6.9376594E-1,-2.8880712E-1,6.507853E-2,7.42464E-1,5.7897188E-2,-3.89813E-1,8.37216E-1,1.14744134E-1,-2.9514655E-1,3.9265834E-2,5.0275285E-2,-2.6235006E-5,-0E0,4.8413303E-2,-7.309261E-2,-5.9562903E-3,3.2757822E-2,-6.416447E-2,-6.4124905E-2,1.9637436E-2,1.1017501E-2,-1.6068397E-2,7.292957E-2,-1.6755225E-2,3.8906064E-2,-0E0,4.169812E-2,-1.0555929E-1,-0E0,4.2620394E-2,-1.02826655E-1,1.8622132E-2,3.9335284E-2,5.3744514E-2,2.6718898E-2,-9.767346E-3,2.27071E-2,-3.18558E-2],"categories":[],"categories_nodes":[],"categories_segments":[],"categories_sizes":[],"default_left":[0,0,0,0,0,0,0,0,0,0,0,0,0,0,0,0,0,0,0,0,0,0,0,0,0,0,0,0,0,0,0,0,0,0,0,0,0,0,0,0,0,0,0,0,0,0,0,0,0,0,0,0,0,0,0,0,0,0,0,0,0,0,0,0,0,0,0,0,0,0,0,0,0,0,0,0,0,0,0,0,0],"id":16,"left_children":[1,3,5,7,9,11,13,15,17,19,21,23,25,27,29,-1,-1,31,-1,33,-1,35,37,39,41,43,45,47,-1,49,51,-1,-1,-1,53,55,57,59,61,63,65,-1,-1,67,69,-1,71,-1,73,75,77,79,-1,-1,-1,-1,-1,-1,-1,-1,-1,-1,-1,-1,-1,-1,-1,-1,-1,-1,-1,-1,-1,-1,-1,-1,-1,-1,-1,-1,-1],"loss_changes":[4.3772485E2,6.8723236E1,3.6931503E1,5.6715393E0,1.5944153E1,3.4749268E1,6.858246E0,1.2237177E1,2.91687E0,9.654003E0,1.9598019E1,1.7256496E1,4.699196E0,5.801254E0,6.6569214E0,0E0,0E0,5.176115E0,0E0,1.1382221E1,0E0,2.650822E1,2.878355E1,2.286436E1,1.098073E1,1.2912956E1,2.5913582E0,9.145325E0,0E0,3.5806274E0,5.646848E0,0E0,0E0,0E0,2.216529E0,1.5747725E1,1.2227015E1,1.3904339E1,1.5660368E1,1.572554E1,1.2050674E1,0E0,0E0,4.023224E0,3.6226402E1,0E0,3.7719097E0,0E0,2.2511915E1,2.1219788E0,1.2739844E0,3.2211647E0,0E0,0E0,0E0,0E0,0E0,0E0,0E0,0E0,0E0,0E0,0E0,0E0,0E0,0E0,0E0,0E0,0E0,0E0,0E0,0E0,0E0,0E0,0E0,0E0,0E0,0E0,0E0,0E0,0E0],"parents":[2147483647,0,0,1,1,2,2,3,3,4,4,5,5,6,6,7,7,8,8,9,9,10,10,11,11,12,12,13,13,14,14,17,17,19,19,21,21,22,22,23,23,24,24,25,25,26,26,27,27,29,29,30,30,34,34,35,35,36,36,37,37,38,38,39,39,40,40,43,43,44,44,46,46,48,48,49,49,50,50,51,51],"right_children":[2,4,6,8,10,12,14,16,18,20,22,24,26,28,30,-1,-1,32,-1,34,-1,36,38,40,42,44,46,48,-1,50,52,-1,-1,-1,54,56,58,60,62,64,66,-1,-1,68,70,-1,72,-1,74,76,78,80,-1,-1,-1,-1,-1,-1,-1,-1,-1,-1,-1,-1,-1,-1,-1,-1,-1,-1,-1,-1,-1,-1,-1,-1,-1,-1,-1,-1,-1],"split_conditions":[5.4E1,3.8E1,7.4E1,1.4E0,2.54E1,1.7912E2,1E0,1.32E0,5.802E1,8.238E1,3.2E1,3.87E1,3.58E1,8.2E1,8.2E1,-6.0647946E-2,3.7119243E-2,3E1,-6.3501805E-2,7.318E1,-7.150302E-2,1.0529E2,4.11E1,3.67E1,4.41E1,3.2E1,1.9394E2,1E0,5.3154536E-2,3.72E1,1E0,-5.5783242E-2,1.9369338E-2,-6.324098E-2,3.9E1,9.616E1,1.6214E2,5.848E1,4.3E1,2.96E1,6.2E1,-8.142399E-2,2.2220935E-3,2.287E2,1.9754E2,6.507853E-2,2.0535E2,5.7897188E-2,2.9E1,2.1106E2,6.84E1,6.248E1,3.9265834E-2,5.0275285E-2,-2.6235006E-5,-0E0,4.8413303E-2,-7.309261E-2,-5.9562903E-3,3.2757822E-2,-6.416447E-2,-6.4124905E-2,1.9637436E-2,1.1017501E-2,-1.6068397E-2,7.292957E-2,-1.6755225E-2,3.8906064E-2,-0E0,4.169812E-2,-1.0555929E-1,-0E0,4.2620394E-2,-1.02826655E-1,1.8622132E-2,3.9335284E-2,5.3744514E-2,2.6718898E-2,-9.767346E-3,2.27071E-2,-3.18558E-2],"split_indices":[1,1,1,1,8,7,5,1,7,7,8,8,8,1,1,0,0,8,0,7,0,7,8,8,8,8,7,4,0,8,3,0,0,0,1,7,7,7,1,8,1,0,0,7,7,0,7,0,8,7,7,7,0,0,0,0,0,0,0,0,0,0,0,0,0,0,0,0,0,0,0,0,0,0,0,0,0,0,0,0,0],"split_type":[0,0,0,0,0,0,0,0,0,0,0,0,0,0,0,0,0,0,0,0,0,0,0,0,0,0,0,0,0,0,0,0,0,0,0,0,0,0,0,0,0,0,0,0,0,0,0,0,0,0,0,0,0,0,0,0,0,0,0,0,0,0,0,0,0,0,0,0,0,0,0,0,0,0,0,0,0,0,0,0,0],"sum_hessian":[1.1644341E3,4.316095E2,7.328246E2,2.0978537E2,2.2182413E2,4.2052618E2,3.1229837E2,1.1416001E1,1.9836935E2,3.4152657E1,1.8767148E2,2.7565808E2,1.4486812E2,2.509341E1,2.8720496E2,7.0089693E0,4.407032E0,7.616107E0,1.9075325E2,1.3063161E1,2.1089495E1,1.0608847E2,8.158301E1,2.6078024E2,1.4877815E1,8.4748055E1,6.012007E1,1.9904024E1,5.1893864E0,2.6943082E2,1.777416E1,4.4951544E0,3.1209528E0,5.694173E0,7.368988E0,7.9085945E1,2.7002522E1,4.823344E1,3.334957E1,2.3951256E2,2.12677E1,8.452837E0,6.4249783E0,6.896596E1,1.5782095E1,1.3969959E1,4.6150112E1,3.9200547E0,1.5983969E1,2.617031E2,7.727723E0,1.037058E1,7.4035797E0,3.1540792E0,4.2149086E0,5.5971886E1,2.311406E1,1.3821559E1,1.3180962E1,3.3551426E0,4.4878296E1,5.9392414E0,2.7410328E1,1.6032053E2,7.919203E1,1.706363E1,4.2040706E0,6.126313E1,7.702827E0,1.0067191E1,5.714904E0,6.1873E0,3.9962814E1,4.5243735E0,1.1459595E1,2.197358E2,4.196729E1,3.1135173E0,4.614206E0,3.0554175E0,7.315162E0],"tree_param":{"num_deleted":"0","num_feature":"10","num_nodes":"81","size_leaf_vector":"1"}},{"base_weights":[-7.622698E-3,-1.7720391E-1,5.0935626E-1,-2.8028938E-1,4.729103E-1,-3.8492563E-1,5.825471E-1,-7.4857867E-1,-1.0435687E-1,6.9016993E-1,-3.8050737E-2,2.9169244E-1,-1.2054535E0,1.0991606E0,5.293385E-1,-1.0114216E0,-2.1173453E-1,2.6468499E-2,-5.2611095E-1,7.6327735E-1,-7.797797E-3,-7.782025E-1,5.285485E-1,4.887384E-2,-2.6625017E-2,-1.4687421E-2,-8.3500355E-2,5.964603E-2,2.2128474E-2,8.8942456E-1,4.3111926E-1,-6.3593894E-2,-7.4813545E-1,-2.8865738E-2,-6.371013E-2,-1.3797303E-1,3.2963115E-1,-6.7046076E-1,7.5713557E-1,-1.0927604E-2,8.2617396E-1,-7.829921E-2,-1.5287429E-1,6.210899E-2,2.8808513E-1,3.554006E-1,9.8569447E-1,-3.4793578E-2,4.6960303E-1,3.6915164E-2,-4.655321E-2,-1.1440664E-2,6.2054195E-2,-2.0922555E-2,8.286524E-3,3.6690753E-2,-6.703646E-3,-4.402162E-2,-5.269393E-3,6.173203E-3,4.6567846E-2,4.8794366E-2,2.12261E-2,2.160246E-2,-2.6439687E-2,3.0050745E-2,-1.7695062E-2,-1.0467913E-2,4.523702E-2,5.677542E-2,3.6653582E-2,1.7299332E-2,3.9213687E-2],"categories":[],"categories_nodes":[],"categories_segments":[],"categories_sizes":[],"default_left":[0,0,0,0,0,0,0,0,0,0,0,0,0,0,0,0,0,0,0,0,0,0,0,0,0,0,0,0,0,0,0,0,0,0,0,0,0,0,0,0,0,0,0,0,0,0,0,0,0,0,0,0,0,0,0,0,0,0,0,0,0,0,0,0,0,0,0,0,0,0,0,0,0],"id":17,"left_children":[1,3,5,7,9,11,13,15,17,19,21,23,25,27,29,31,33,35,37,39,-1,41,43,-1,-1,-1,-1,-1,-1,45,47,-1,49,51,-1,53,55,57,59,-1,61,-1,63,-1,65,67,69,-1,71,-1,-1,-1,-1,-1,-1,-1,-1,-1,-1,-1,-1,-1,-1,-1,-1,-1,-1,-1,-1,-1,-1,-1,-1],"loss_changes":[1.0007029E2,5.7741714E1,1.8694618E1,6.1048275E1,1.3182875E1,1.2559437E1,6.431572E0,2.8249298E1,2.9935736E1,5.309971E0,1.5530911E1,7.7429233E0,3.601286E0,7.412472E-1,7.9299545E0,8.145752E0,1.3040047E1,2.0702866E1,2.4284286E1,4.972748E0,0E0,7.513831E0,3.0766363E0,0E0,0E0,0E0,0E0,0E0,0E0,2.0869522E0,8.534893E0,0E0,1.9756115E1,1.5188944E1,0E0,2.2999338E1,2.7539627E1,1.35745735E1,1.2570167E0,0E0,3.7938538E0,0E0,2.4694111E0,0E0,3.661446E0,3.1634512E0,5.572128E-1,0E0,6.7804146E0,0E0,0E0,0E0,0E0,0E0,0E0,0E0,0E0,0E0,0E0,0E0,0E0,0E0,0E0,0E0,0E0,0E0,0E0,0E0,0E0,0E0,0E0,0E0,0E0],"parents":[2147483647,0,0,1,1,2,2,3,3,4,4,5,5,6,6,7,7,8,8,9,9,10,10,11,11,12,12,13,13,14,14,15,15,16,16,17,17,18,18,19,19,21,21,22,22,29,29,30,30,32,32,33,33,35,35,36,36,37,37,38,38,40,40,42,42,44,44,45,45,46,46,48,48],"right_children":[2,4,6,8,10,12,14,16,18,20,22,24,26,28,30,32,34,36,38,40,-1,42,44,-1,-1,-1,-1,-1,-1,46,48,-1,50,52,-1,54,56,58,60,-1,62,-1,64,-1,66,68,70,-1,72,-1,-1,-1,-1,-1,-1,-1,-1,-1,-1,-1,-1,-1,-1,-1,-1,-1,-1,-1,-1,-1,-1,-1,-1],"split_conditions":[1.6214E2,1E0,2.58E1,1E0,9.128E1,2.25E1,1.7625E2,2.959403E1,3.21E1,3.69E1,1.1177E2,1E0,1.7625E2,3.27E1,2.84E1,2.28E1,3.81E1,2.93E1,1E0,6.067E1,-7.797797E-3,1E0,1.1237E2,4.887384E-2,-2.6625017E-2,-1.4687421E-2,-8.3500355E-2,5.964603E-2,2.2128474E-2,2.66E1,1.844E2,-6.3593894E-2,2.3E1,3.75E1,-6.371013E-2,9.298E1,3E1,4.11E1,8.905E1,-1.0927604E-2,1E0,-7.829921E-2,9.328E1,6.210899E-2,3.15E1,2.1938E2,1E0,-3.4793578E-2,1E0,3.6915164E-2,-4.655321E-2,-1.1440664E-2,6.2054195E-2,-2.0922555E-2,8.286524E-3,3.6690753E-2,-6.703646E-3,-4.402162E-2,-5.269393E-3,6.173203E-3,4.6567846E-2,4.8794366E-2,2.12261E-2,2.160246E-2,-2.6439687E-2,3.0050745E-2,-1.7695062E-2,-1.0467913E-2,4.523702E-2,5.677542E-2,3.6653582E-2,1.7299332E-2,3.9213687E-2],"split_indices":[7,2,8,4,7,8,7,8,8,8,7,5,7,8,8,8,8,8,3,7,0,6,7,0,0,0,0,0,0,8,7,0,8,8,0,7,8,8,7,0,0,0,7,0,8,7,0,0,3,0,0,0,0,0,0,0,0,0,0,0,0,0,0,0,0,0,0,0,0,0,0,0,0],"split_type":[0,0,0,0,0,0,0,0,0,0,0,0,0,0,0,0,0,0,0,0,0,0,0,0,0,0,0,0,0,0,0,0,0,0,0,0,0,0,0,0,0,0,0,0,0,0,0,0,0,0,0,0,0,0,0,0,0,0,0,0,0,0,0,0,0,0,0,0,0,0,0,0,0],"sum_hessian":[1.1397931E3,8.589034E2,2.8088977E2,7.4197473E2,1.1692866E2,2.0824188E1,2.6006558E2,2.0158403E2,5.403907E2,8.193503E1,3.499363E1,1.16993685E1,9.124819E0,2.2273252E1,2.3779233E2,1.3460843E2,6.69756E1,4.1298544E2,1.2740524E2,7.561758E1,6.3174496E0,1.5087619E1,1.9906012E1,6.350593E0,5.348775E0,3.7037148E0,5.4211044E0,1.8642061E1,3.631192E0,4.9016605E1,1.8877573E2,6.55512E1,6.9057236E1,5.809735E1,8.878251E0,2.67891E2,1.4509444E2,1.15022095E2,1.2383148E1,4.307764E0,7.1309814E1,5.9401307E0,9.147488E0,3.8622477E0,1.6043764E1,8.361964E0,4.065464E1,5.5834875E0,1.8319223E2,7.174683E0,6.1882553E1,5.0970806E1,7.126543E0,1.3924554E2,1.2864545E2,7.732654E1,6.776791E1,8.33249E1,3.1697199E1,3.1626647E0,9.220483E0,5.0724068E1,2.0585747E1,3.4163637E0,5.731124E0,1.0933786E1,5.1099772E0,4.3385215E0,4.0234423E0,2.3077925E1,1.7576715E1,1.3325943E2,4.9932808E1],"tree_param":{"num_deleted":"0","num_feature":"10","num_nodes":"73","size_leaf_vector":"1"}},{"base_weights":[1.7498942E-2,-9.489885E-1,3.8760352E-1,-1.1698245E0,-5.5398536E-1,1.0788495E-1,6.4919585E-1,-8.863642E-1,-6.4294115E-2,-6.5163636E-1,4.8674765E-1,-4.6190932E-1,2.332802E-1,4.4015703E-1,7.345972E-1,-6.327733E-2,-2.0050259E-1,-4.0861583E-1,-6.707152E-2,-1.0608507E-3,5.7955135E-2,-2.867963E-1,-7.38113E-2,6.476044E-2,1.6601115E-1,-7.1033216E-1,5.2134913E-1,7.5820994E-1,-1.895366E-1,8.430031E-1,-6.2634885E-2,1.9689573E-1,-6.5408915E-1,1.388946E-1,-7.4910253E-1,-1.13984905E-2,5.0344485E-1,-7.819621E-2,2.686719E-2,1.0713971E0,4.32623E-1,-2.868737E-3,7.7228E-1,-4.9802236E-2,4.2462587E-2,8.304521E-3,6.663219E-2,2.5128722E-2,-6.0204726E-2,-4.972643E-2,-1.3207133E-2,1.9722069E-2,-6.665891E-2,2.054738E-2,-6.0437154E-2,3.1512098E-3,-5.4757465E-2,3.3560142E-2,-4.5140465E-3,6.566166E-2,1.8086547E-2,1.23161925E-2,4.4507302E-2,6.0363602E-2,3.717324E-2],"categories":[],"categories_nodes":[],"categories_segments":[],"categories_sizes":[],"default_left":[0,0,0,0,0,0,0,0,0,0,0,0,0,0,0,0,0,0,0,0,0,0,0,0,0,0,0,0,0,0,0,0,0,0,0,0,0,0,0,0,0,0,0,0,0,0,0,0,0,0,0,0,0,0,0,0,0,0,0,0,0,0,0,0,0],"id":18,"left_children":[1,3,5,7,9,11,13,15,-1,17,19,21,23,25,27,-1,29,31,-1,-1,-1,33,-1,-1,35,37,39,41,43,45,-1,47,49,51,53,55,57,-1,-1,59,61,-1,63,-1,-1,-1,-1,-1,-1,-1,-1,-1,-1,-1,-1,-1,-1,-1,-1,-1,-1,-1,-1,-1,-1],"loss_changes":[4.0921063E2,2.6809906E1,6.0395462E1,5.2917786E0,1.2086647E1,2.8751936E1,7.184906E0,1.577026E1,0E0,1.7086578E1,3.691946E0,1.228883E1,2.3188017E1,1.21894E1,6.778137E0,0E0,2.6810759E1,1.2081563E1,0E0,0E0,0E0,1.26036825E1,0E0,0E0,1.8687963E1,1.0204454E1,5.1953926E0,3.4921112E0,7.734197E0,3.7082815E0,0E0,1.0709854E1,7.224745E0,1.30854025E1,1.6875656E1,1.6689215E1,1.0823132E1,0E0,0E0,2.0519676E0,8.560129E0,0E0,2.5350952E0,0E0,0E0,0E0,0E0,0E0,0E0,0E0,0E0,0E0,0E0,0E0,0E0,0E0,0E0,0E0,0E0,0E0,0E0,0E0,0E0,0E0,0E0],"parents":[2147483647,0,0,1,1,2,2,3,3,4,4,5,5,6,6,7,7,9,9,10,10,11,11,12,12,13,13,14,14,16,16,17,17,21,21,24,24,25,25,26,26,27,27,28,28,29,29,31,31,32,32,33,33,34,34,35,35,36,36,39,39,40,40,42,42],"right_children":[2,4,6,8,10,12,14,16,-1,18,20,22,24,26,28,-1,30,32,-1,-1,-1,34,-1,-1,36,38,40,42,44,46,-1,48,50,52,54,56,58,-1,-1,60,62,-1,64,-1,-1,-1,-1,-1,-1,-1,-1,-1,-1,-1,-1,-1,-1,-1,-1,-1,-1,-1,-1,-1,-1],"split_conditions":[4.8E1,3.8E1,6.8E1,7.634E1,4.57E1,2.73E1,7.4E1,2.959403E1,-6.4294115E-2,1.0153E2,2.1938E2,2.65E1,2.75E1,7.094E1,3.72E1,-6.327733E-2,3.1E1,4E1,-6.707152E-2,-1.0608507E-3,5.7955135E-2,1E0,-7.38113E-2,6.476044E-2,1.5116E2,3.15E1,1E0,5.792E1,4.51E1,2.98E1,-6.2634885E-2,1E0,4.5E1,1.166E2,2.08E1,1.2139E2,2.174E2,-7.819621E-2,2.686719E-2,9.448E1,2.1973E2,-2.868737E-3,6.136E1,-4.9802236E-2,4.2462587E-2,8.304521E-3,6.663219E-2,2.5128722E-2,-6.0204726E-2,-4.972643E-2,-1.3207133E-2,1.9722069E-2,-6.665891E-2,2.054738E-2,-6.0437154E-2,3.1512098E-3,-5.4757465E-2,3.3560142E-2,-4.5140465E-3,6.566166E-2,1.8086547E-2,1.23161925E-2,4.4507302E-2,6.0363602E-2,3.717324E-2],"split_indices":[1,1,1,7,8,8,1,8,0,7,7,8,8,7,8,0,8,1,0,0,0,6,0,0,7,8,4,7,8,8,0,0,1,7,8,7,7,0,0,7,7,0,7,0,0,0,0,0,0,0,0,0,0,0,0,0,0,0,0,0,0,0,0,0,0],"split_type":[0,0,0,0,0,0,0,0,0,0,0,0,0,0,0,0,0,0,0,0,0,0,0,0,0,0,0,0,0,0,0,0,0,0,0,0,0,0,0,0,0,0,0,0,0,0,0,0,0,0,0,0,0,0,0,0,0,0,0,0,0,0,0,0,0],"sum_hessian":[1.1421292E3,3.1574957E2,8.263796E2,2.0110324E2,1.14646324E2,4.002211E2,4.261585E2,6.1178738E1,1.399245E2,1.0524156E2,9.404761E0,7.1562225E1,3.2865887E2,1.25730385E2,3.0042813E2,3.8759403E1,2.2419334E1,7.910834E1,2.613322E1,5.8242497E0,3.5805118E0,6.220449E1,9.357734E0,1.8403004E1,3.1025586E2,7.6961284E0,1.18034256E2,2.9322366E2,7.204461E0,1.13082485E1,1.1111086E1,2.2758999E1,5.6349342E1,3.2636295E1,2.9568197E1,2.0378397E2,1.0647189E2,4.466839E0,3.2292893E0,1.4700115E1,1.0333414E2,4.8000236E0,2.8842365E2,4.1330237E0,3.0714374E0,5.3942747E0,5.913974E0,1.9267681E1,3.4913187E0,2.9119736E1,2.7229605E1,2.8490435E1,4.1458597E0,8.359272E0,2.1208925E1,1.9148407E2,1.2299906E1,8.304528E1,2.3426619E1,1.022447E1,4.475645E0,7.468148E1,2.865266E1,1.5162585E1,2.7326105E2],"tree_param":{"num_deleted":"0","num_feature":"10","num_nodes":"65","size_leaf_vector":"1"}},{"base_weights":[-7.7708983E-3,-9.416619E-1,3.4038427E-1,-1.1504307E0,-5.7228464E-1,6.2320735E-2,6.086767E-1,-2.5082973E-1,-1.1917787E0,-7.409119E-1,7.6994024E-2,-4.70439E-1,1.8141297E-1,3.752745E-1,7.00643E-1,-5.3798117E-2,3.670638E-2,-5.013197E-1,-1.2282444E0,-4.9530098E-1,-6.6802E-2,-2.5000125E-1,7.603806E-1,-3.207104E-1,-7.085259E-2,-7.056396E-2,2.169687E-1,1.0564235E-1,6.973693E-1,7.3465073E-1,2.5326785E-1,-5.7726115E-2,2.7957184E-2,-9.5294654E-1,-6.324317E-2,-8.957964E-1,3.5930702E-1,6.4683574E-1,-6.399327E-2,1.0519902E-2,5.6566216E-2,5.936581E-2,-7.912665E-1,1.0557774E0,1.5475163E-1,2.860053E-1,-8.5211533E-1,5.5823352E-2,4.666196E-1,-6.9106068E-3,7.5183284E-1,-4.8250183E-2,5.028362E-2,-1.37682725E-2,-6.1124653E-2,-1.692426E-2,-6.917592E-2,4.0081296E-2,-5.9010386E-2,9.167306E-3,5.9574377E-2,-6.2297225E-2,1.4951186E-2,1.1858314E-2,-6.1701726E-2,6.270995E-2,2.886182E-2,-7.3097036E-3,1.7447585E-2,-3.0862976E-2,2.2306282E-2,-7.939097E-2,-5.0065556E-4,9.4110315E-4,5.1264066E-2,3.3795305E-2,4.424712E-2,1.9843284E-2,-7.697078E-2],"categories":[],"categories_nodes":[],"categories_segments":[],"categories_sizes":[],"default_left":[0,0,0,0,0,0,0,0,0,0,0,0,0,0,0,0,0,0,0,0,0,0,0,0,0,0,0,0,0,0,0,0,0,0,0,0,0,0,0,0,0,0,0,0,0,0,0,0,0,0,0,0,0,0,0,0,0,0,0,0,0,0,0,0,0,0,0,0,0,0,0,0,0,0,0,0,0,0,0],"id":19,"left_children":[1,3,5,7,9,11,13,15,17,19,21,23,25,27,29,-1,-1,31,33,35,-1,37,39,41,-1,-1,43,45,47,49,51,-1,-1,53,-1,55,57,59,-1,-1,-1,61,63,65,67,69,71,-1,73,-1,75,77,-1,-1,-1,-1,-1,-1,-1,-1,-1,-1,-1,-1,-1,-1,-1,-1,-1,-1,-1,-1,-1,-1,-1,-1,-1,-1,-1],"loss_changes":[3.6640707E2,2.277066E1,6.112097E1,6.7869263E0,1.2460293E1,2.5708755E1,8.588837E0,8.881608E0,3.8808594E0,1.2261448E1,5.607562E0,9.8589E0,1.8948986E1,1.0305666E1,4.2482758E0,0E0,0E0,8.415355E0,3.4036255E-1,2.268396E1,0E0,1.649693E1,1.2840576E0,1.1793493E1,0E0,0E0,1.667723E1,1.1744573E1,4.594349E0,4.3071747E0,5.3129096E0,0E0,0E0,4.0721874E0,0E0,1.1522163E1,1.550256E1,2.0785513E0,0E0,0E0,0E0,1.1827131E1,1.375753E1,1.1970062E0,1.78294E1,8.522339E0,6.494385E0,0E0,9.142655E0,0E0,1.985733E0,1.2091338E1,0E0,0E0,0E0,0E0,0E0,0E0,0E0,0E0,0E0,0E0,0E0,0E0,0E0,0E0,0E0,0E0,0E0,0E0,0E0,0E0,0E0,0E0,0E0,0E0,0E0,0E0,0E0],"parents":[2147483647,0,0,1,1,2,2,3,3,4,4,5,5,6,6,7,7,8,8,9,9,10,10,11,11,12,12,13,13,14,14,17,17,18,18,19,19,21,21,22,22,23,23,26,26,27,27,28,28,29,29,30,30,33,33,35,35,36,36,37,37,41,41,42,42,43,43,44,44,45,45,46,46,48,48,50,50,51,51],"right_children":[2,4,6,8,10,12,14,16,18,20,22,24,26,28,30,-1,-1,32,34,36,-1,38,40,42,-1,-1,44,46,48,50,52,-1,-1,54,-1,56,58,60,-1,-1,-1,62,64,66,68,70,72,-1,74,-1,76,78,-1,-1,-1,-1,-1,-1,-1,-1,-1,-1,-1,-1,-1,-1,-1,-1,-1,-1,-1,-1,-1,-1,-1,-1,-1,-1,-1],"split_conditions":[4.8E1,3.8E1,6.8E1,5.802E1,3.91E1,2.73E1,7.4E1,5.792E1,1.4E0,3.09E1,1.4184E2,2.65E1,5.974E1,1.7123E2,3.42E1,-5.3798117E-2,3.670638E-2,1.32E0,1E0,2.94E1,-6.6802E-2,4.15E1,5.66E1,1E0,-7.085259E-2,-7.056396E-2,2.76E1,1.0325E2,1.9692E2,5.792E1,4.47E1,-5.7726115E-2,2.7957184E-2,7.634E1,-6.324317E-2,8.351E1,1.0153E2,4.05E1,-6.399327E-2,1.0519902E-2,5.6566216E-2,5.2E1,2.08E1,2.74E1,5.7E1,7.094E1,7.2E1,5.5823352E-2,3.86E1,-6.9106068E-3,8E1,3.72E1,5.028362E-2,-1.37682725E-2,-6.1124653E-2,-1.692426E-2,-6.917592E-2,4.0081296E-2,-5.9010386E-2,9.167306E-3,5.9574377E-2,-6.2297225E-2,1.4951186E-2,1.1858314E-2,-6.1701726E-2,6.270995E-2,2.886182E-2,-7.3097036E-3,1.7447585E-2,-3.0862976E-2,2.2306282E-2,-7.939097E-2,-5.0065556E-4,9.4110315E-4,5.1264066E-2,3.3795305E-2,4.424712E-2,1.9843284E-2,-7.697078E-2],"split_indices":[1,1,1,7,8,8,1,7,1,8,7,8,7,7,8,0,0,1,9,8,0,8,8,6,0,0,8,7,7,7,8,0,0,7,0,7,7,8,0,0,0,1,8,8,1,7,1,0,8,0,1,8,0,0,0,0,0,0,0,0,0,0,0,0,0,0,0,0,0,0,0,0,0,0,0,0,0,0,0],"split_type":[0,0,0,0,0,0,0,0,0,0,0,0,0,0,0,0,0,0,0,0,0,0,0,0,0,0,0,0,0,0,0,0,0,0,0,0,0,0,0,0,0,0,0,0,0,0,0,0,0,0,0,0,0,0,0,0,0,0,0,0,0,0,0,0,0,0,0,0,0,0,0,0,0,0,0,0,0,0,0],"sum_hessian":[1.1247538E3,3.0505557E2,8.196982E2,1.9337593E2,1.1167964E2,4.033074E2,4.1639075E2,8.914272E0,1.8446165E2,8.866493E1,2.3014711E1,7.2991165E1,3.3031625E2,1.1943737E2,2.9695337E2,4.8556557E0,4.058617E0,1.0130796E1,1.7433086E2,6.417856E1,2.448637E1,1.58962965E1,7.118414E0,6.4269844E1,8.721318E0,6.306725E0,3.2400952E2,6.590521E1,5.3532158E1,2.7517032E2,2.178305E1,6.2726808E0,3.8581154E0,2.3959557E1,1.503713E2,4.3746452E1,2.0432108E1,8.643818E0,7.2524786E0,3.6070988E0,3.511315E0,3.591888E1,2.8350967E1,2.1159616E1,3.028499E2,5.613902E1,9.766193E0,1.7491508E1,3.604065E1,5.0637665E0,2.7010657E2,1.6124353E1,5.6586967E0,7.4996524E0,1.6459904E1,2.1302973E1,2.2443478E1,1.6294718E1,4.1373897E0,5.491163E0,3.1526554E0,4.855735E0,3.1063145E1,8.604198E0,1.9746769E1,1.3664102E1,7.4955144E0,1.1867511E2,1.8417479E2,7.929262E0,4.8209755E1,4.676376E0,5.089817E0,2.0678448E1,1.5362203E1,1.763463E2,9.376026E1,1.2931169E1,3.1931858E0],"tree_param":{"num_deleted":"0","num_feature":"10","num_nodes":"79","size_leaf_vector":"1"}},{"base_weights":[3.9004658E-3,-8.665428E-1,3.4442016E-1,-1.1240346E0,-4.763664E-1,1.2701839E-1,7.067662E-1,-8.136242E-1,-6.2476892E-2,-1.9898637E-1,-7.363107E-1,-4.128055E-2,4.5710295E-1,7.6431525E-1,2.3737788E-1,-9.626056E-1,6.7650765E-2,-6.155077E-1,5.399781E-1,-9.2683697E-1,3.6977467E-1,-3.7734377E-1,1.1224727E-1,6.769636E-1,3.3006543E-1,4.0325898E-1,7.9372764E-1,